{"in": [0, 0, 0, 0, 0, 0, 0, 0, 0, 0, 0, 0, 0, 0, 0, 0, 0, 0, 0, 0, 0, 0, 0, 0, 0, 0, 0, 0, 0, 0, 0, 0, 0, 0, 0, 0, 0, 0, 0, 0, 0, 0, 0, 0, 0, 0, 0, 0, 0, 0, 0, 0, 0, 0, 0, 0, 0, 0, 0, 0, 0, 0, 0, 0, 0, 0, 0, 0, 0, 0, 0, 0, 0, 0, 0, 0, 0, 0, 0, 0, 0, 0, 0, 0, 0, 0, 0, 0, 0, 0, 0, 0, 0, 0, 0, 0, 0, 0, 0, 0, 0, 0, 0, 0, 0, 0, 0, 0, 0, 0, 0, 0, 0, 0, 0, 0, 0, 0, 0, 0, 0, 0, 0, 0, 0, 0, 0, 0, 0, 0, 0, 0, 0, 0, 0, 0, 0, 0, 0, 0, 0, 0, 0, 0, 0, 0, 0, 0, 0, 0, 0, 0, 0, 0, 0, 0, 0, 0, 0, 0, 0, 0, 0, 0, 0, 0, 0, 0, 0, 0, 0, 0, 0, 0, 0, 0, 0, 0, 0, 0, 0, 0, 0, 0, 0, 0, 0, 0, 0, 0, 0, 0, 0, 0, 0, 0, 0, 0, 0, 0, 0, 0, 84, 185, 159, 151, 60, 36, 0, 0, 0, 0, 0, 0, 0, 0, 0, 0, 0, 0, 0, 0, 0, 0, 0, 0, 0, 0, 0, 0, 222, 254, 254, 254, 254, 241, 198, 198, 198, 198, 198, 198, 198, 198, 170, 52, 0, 0, 0, 0, 0, 0, 0, 0, 0, 0, 0, 0, 67, 114, 72, 114, 163, 227, 254, 225, 254, 254, 254, 250, 229, 254, 254, 140, 0, 0, 0, 0, 0, 0, 0, 0, 0, 0, 0, 0, 0, 0, 0, 0, 0, 17, 66, 14, 67, 67, 67, 59, 21, 236, 254, 106, 0, 0, 0, 0, 0, 0, 0, 0, 0, 0, 0, 0, 0, 0, 0, 0, 0, 0, 0, 0, 0, 0, 0, 0, 83, 253, 209, 18, 0, 0, 0, 0, 0, 0, 0, 0, 0, 0, 0, 0, 0, 0, 0, 0, 0, 0, 0, 0, 0, 0, 0, 22, 233, 255, 83, 0, 0, 0, 0, 0, 0, 0, 0, 0, 0, 0, 0, 0, 0, 0, 0, 0, 0, 0, 0, 0, 0, 0, 0, 129, 254, 238, 44, 0, 0, 0, 0, 0, 0, 0, 0, 0, 0, 0, 0, 0, 0, 0, 0, 0, 0, 0, 0, 0, 0, 0, 59, 249, 254, 62, 0, 0, 0, 0, 0, 0, 0, 0, 0, 0, 0, 0, 0, 0, 0, 0, 0, 0, 0, 0, 0, 0, 0, 0, 133, 254, 187, 5, 0, 0, 0, 0, 0, 0, 0, 0, 0, 0, 0, 0, 0, 0, 0, 0, 0, 0, 0, 0, 0, 0, 0, 9, 205, 248, 58, 0, 0, 0, 0, 0, 0, 0, 0, 0, 0, 0, 0, 0, 0, 0, 0, 0, 0, 0, 0, 0, 0, 0, 0, 126, 254, 182, 0, 0, 0, 0, 0, 0, 0, 0, 0, 0, 0, 0, 0, 0, 0, 0, 0, 0, 0, 0, 0, 0, 0, 0, 75, 251, 240, 57, 0, 0, 0, 0, 0, 0, 0, 0, 0, 0, 0, 0, 0, 0, 0, 0, 0, 0, 0, 0, 0, 0, 0, 19, 221, 254, 166, 0, 0, 0, 0, 0, 0, 0, 0, 0, 0, 0, 0, 0, 0, 0, 0, 0, 0, 0, 0, 0, 0, 0, 3, 203, 254, 219, 35, 0, 0, 0, 0, 0, 0, 0, 0, 0, 0, 0, 0, 0, 0, 0, 0, 0, 0, 0, 0, 0, 0, 0, 38, 254, 254, 77, 0, 0, 0, 0, 0, 0, 0, 0, 0, 0, 0, 0, 0, 0, 0, 0, 0, 0, 0, 0, 0, 0, 0, 31, 224, 254, 115, 1, 0, 0, 0, 0, 0, 0, 0, 0, 0, 0, 0, 0, 0, 0, 0, 0, 0, 0, 0, 0, 0, 0, 0, 133, 254, 254, 52, 0, 0, 0, 0, 0, 0, 0, 0, 0, 0, 0, 0, 0, 0, 0, 0, 0, 0, 0, 0, 0, 0, 0, 61, 242, 254, 254, 52, 0, 0, 0, 0, 0, 0, 0, 0, 0, 0, 0, 0, 0, 0, 0, 0, 0, 0, 0, 0, 0, 0, 0, 121, 254, 254, 219, 40, 0, 0, 0, 0, 0, 0, 0, 0, 0, 0, 0, 0, 0, 0, 0, 0, 0, 0, 0, 0, 0, 0, 0, 121, 254, 207, 18, 0, 0, 0, 0, 0, 0, 0, 0, 0, 0, 0, 0, 0, 0, 0, 0, 0, 0, 0, 0, 0, 0, 0, 0, 0, 0, 0, 0, 0, 0, 0, 0, 0, 0, 0, 0, 0, 0, 0, 0, 0, 0], "conv2d_weights": [9619841, -6818771, 3574601, -23520069, 5194388, -691053, 9191592, 935077, 14954798], "conv2d_bias": [-186816603], "dense_weights": [-18503305, 4309714, -184837103, -49180720, 8549338, -58670875, 42745762, 60703114, -81963591, -29749267, 141644835, 71580820, -162575498, -89236632, -238318950, -44645470, -156992570, -139021859, -139715001, -258717388, 220652267, 123753145, -218575254, -27953900, -143605217, -230856851, 107335843, -175792679, -56964599, -169318989, 254740953, 23235451, -145936474, -175584003, -139092073, -256308138, -23400890, -227847293, -133591250, -179382443, -93456522, -11347732, 22505336, -87382674, -182440445, -196963936, 155016765, -68158589, -190992117, -82779206, -78188993, -146246016, -55987448, -108249225, -431213200, -177051544, 283985704, -449621648, -220910519, -164202869, -168144539, -283342481, 69869801, -223718882, -555451691, -324738115, 214521497, -107344031, -81658237, -282181054, -156388178, -267528445, 182421133, -247752875, -649377048, -506032288, 116641954, -93074888, -407684535, -125561073, -271583408, -272612929, -5567722, -20932477, -503620148, -417291194, 277759790, -231302500, -534598947, -357353836, -225048959, -386145651, 198998585, 110383861, -709789813, -210334018, 182194144, -355475217, -559878886, -425439596, -138263643, -241573125, 141100660, 34681704, -500458777, -343949825, 252501637, -316397369, -494969785, -492459267, -273976356, 187570021, -39055854, 146091446, -225859568, -385917962, 109288797, -272668451, -443602592, -394018054, -431060672, 154493749, 21934642, 9768939, -48360143, -483013660, 164126039, -324688673, -443848997, -312772036, -486171752, 231522173, -46481166, 401229, -99451341, -182174131, 67008719, -200027451, -504918635, -237217844, -304708362, 181745470, 86095847, -91303281, -163663372, 26665764, 61692487, -215324476, -556256592, -306805611, -298642933, 191406354, 31509008, 22069680, -122617930, 20514654, 21925749, -27737873, -274349630, -312061816, -343346149, 95115095, -83290055, -44739924, -155105740, 125265017, 123319782, -12184094, -17560091, -255037367, -499113768, 70128992, -15776498, -99113069, -248434469, 189559877, 125541523, -130477846, -162615463, -218813837, -359098583, -68269484, -16171111, -166909128, -341242135, 33724509, 52034859, -29224655, -145558700, -168171883, -179023519, -123115376, -155203834, -144429624, -259420007, -31193491, 109061122, -19977052, -290382802, -215002090, -304934144, -153679773, -59207324, -149767116, -272990286, -133319929, 204379812, -41355357, -168744236, -144630581, -136774153, -163080320, 37849206, -198269978, -163449422, -13736370, 275220066, -75966440, -202690527, -323965698, -101141624, -323955446, 31516790, -95987722, -198871851, -47208015, 172651321, -176927865, -266316980, -56157269, -84801391, -157343179, 189407542, -37947923, -196626648, -122388080, 20453030, 30502349, -160756141, -189075202, -115539826, -78130946, 113713972, -4653448, -117585935, -269590139, -62686212, 89807294, -171759158, -8981929, -68210766, 17860740, 187156692, -49374539, -165493920, -150377274, -202257425, 17741133, -661499, -83484262, 12308331, 341792524, -127245933, -157229677, -111765191, -170351267, -222646013, -2451293, -39247729, -74402846, 195157409, 172948033, -301602423, -190397426, -368610442, 32572348, 118729837, -284289390, -121349491, -261514723, 89309737, 208714902, -238389477, -284173518, -358728886, 178706780, 106955677, -195498511, -164781272, -329727262, 10216084, -257023931, -60966469, 87118670, -275364906, -120619595, 140388891, -348968267, -201717123, -275949955, -129270285, -295900971, 61300293, -21152940, -248962626, -37014484, 177010253, -381972700, -343770027, -228349164, -145155549, -254503459, 41961886, 146176696, -134527832, -225366250, 179964945, -411983788, -372696161, -355574280, -29164106, -268814266, 13519573, 242351666, -325051665, -96978173, 141585514, -309042990, -172605172, -618999600, -140599847, -217276052, 161376566, 29469451, -441026419, -66062652, 92007175, -290115684, -173706278, -179043561, -111200929, -193681270, 121022277, 69975398, -366003633, 20416377, 130011588, -437987864, -30861635, -374245971, 65811530, -216749609, 4246517, 90768017, -298171371, -37184332, 48299409, -362116724, -43731976, -403133720, -111243747, -146839663, 115968078, 206929266, -354363710, -76509736, 64360335, -368428290, -86404517, -441543937, -11910452, 58461484, 95478654, 107441686, -393504262, 56243315, 80763742, -495828658, 46560615, -454692453, 16096080, -30210057, 152056873, 117458455, -280120343, -15509358, 36516085, -394143313, -108357303, -427680254, -43742839, -153916717, -19829793, 45264315, -336072922, -1123554, 120809942, -343486816, -41763350, -695539057, -60728971, 2290602, 43256607, 134560809, -203355223, -39981253, 86279765, -271433860, -27640156, -675652206, -53507142, -65327927, 56462120, 127458721, -124721929, 86579844, -15223673, -193416074, -91248780, -514495194, -106466740, -78676514, -43055739, 76826826, -132593259, 68440311, 72941177, -188841224, 29895475, -55543605, -66270150, -23345580, -7273099, 86576454, -116087772, 50077260, 127600804, -106144279, 26539817, -203771621, -142716765, -153546706, -61339103, 49239863, -15474515, -9660255, 45179956, -219733492, -72345458, -143167287, -144399345, -131494537, -52832171, 95644861, -52088574, 122263566, 65132231, -188576087, -114673242, -305722475, -124992907, -64261071, -93239300, -21670327, 36122900, 98061584, 80794029, -137069240, -50984941, -252438664, -128233686, -142077088, -160665333, -346358955, -25047103, 116669551, 162738711, -180318058, 127385125, -201873556, -182675391, -372823924, 47449954, -392342150, -83901927, -21850001, 116126761, -206892326, 132415250, -15226299, -22174435, -437066108, 24957601, -306069613, -55932172, 83737381, -16436087, -146389484, -11599361, -194920510, -138175145, -287580103, -328684747, -205198377, -322932839, -5068216, 128180921, 16621038, -101646803, -211325034, 42682540, -191503391, -521116078, -195176125, -354113072, 72627380, 91491461, 111629687, -72175749, -68327971, -132102758, 209464788, -244685560, 1323945, -111245431, -329510897, -255740136, 71389221, -146806315, 19036770, 86865753, 52013990, -274936169, 86807229, -378689438, -80717266, -31282224, 112130344, -281202257, -164905310, -169923082, 62984206, -287730724, 69798544, -15460672, -295237362, 178398207, 118555672, -289624780, -149691731, -335460067, 17319139, -33875860, 260845751, 20101260, -427088976, 201291710, -241124213, -488801748, -209955767, -178811520, -79424374, 199751139, 172856763, -140255496, -250760019, 59969150, -386484325, -146325499, -104776576, -136576653, -58620878, 156361133, 107351243, -73841698, -26478704, -9183422, -480776459, -161555558, -309911668, 1397936, 31293228, 871943, 57520032, -10796686, -133253723, -55677947, -534424424, 78385800, -297620267, 110160887, 34622248, 76413214, -14449690, -89563064, -25208483, -26995670, -467232496, -8872600, -416493535, -27309990, -35287324, 72523683, 44725906, -32410812, -111285217, 23062857, -519749165, 114126340, -201697022, 88257015, -8506702, 57355013, 128544748, -63049607, 46394106, -36499713, -372761160, -16904682, -97172581, -53027809, -27350672, 101144560, -9235846, -104530334, -73040359, -31752493, -251746833, 94820380, -63074328, 127302140, 117132947, 8782313, 120676458, 17230155, 63377775, -44283673, -57814136, 25526, -80289736, 70274487, 80203041, 116411336, -2422148, 9403508, -52487589, 74840859, -193464726, 85192218, -124562934, -19196140, 37573073, 14342302, 114404447, -65628812, 46946909, -82922019, -102618933, 9179873, -106001325, -37630118, 36080062, 30195720, -3123047, -37986282, -33420552, -3974543, -237641811, 17968878, -232531443, 38807020, -21126807, 92338875, 10142618, -15264961, 61184529, 90190262, -275136679, 59672017, -93880773, 52533902, -22811122, -14824431, 84168933, -51464371, 51686496, 51948026, -503046155, 13804809, -136774123, -43034587, -1180898, -18252326, -2470291, 17597267, 78365751, 102626763, -600855529, -59311688, -124984704, -10833029, 43646041, -16266229, -13464812, 52349720, -87446801, 43408416, -530746758, 36012236, -235421643, 2652829, 71313746, -15845297, 13563128, 56158233, -9203841, 90557203, -78749545, 11531447, -313837975, -27520489, 3344191, -52564725, -168758124, 138805300, -15665488, 112167634, -15731569, -88028274, -300549716, -20130796, -5698486, -180184782, -26120409, 56825604, -21014001, 130741373, 13507942, -147456393, -566813290, -84355608, -112006336, -242185816, -63730583, 160974875, 78041472, 31113569, -155074656, -57056662, -280261725, -111743271, -259676158, -114196159, -255349934, 53762391, 354880303, -82691461, -429289520, 8479324, -208911926, -55139177, -332086891, -187946439, -432066172, -29206648, 178177789, -58055520, -323835701, 279008210, -53207390, -158316299, -510712326, -50006952, -351506948, -149330586, 124483503, 103874028, -278626204, 182147473, -244587079, -254762530, 437110066, 9519772, -29755728, -171354562, -201271296, -26254162, -118770078, -318330765, -50007254, 60492236, 164387450, -58168985, 89225277, -248612046, -35012558, -168105438, -12210885, -307775021, -392711192, -229866400, 248861089, -83243109, 226142615, 121031538, -358465731, 23546850, -158955187, -176611289, -164148837, -288553923, 195390150, 44524413, 132617831, 34848567, -118071541, -130691782, 104892261, -242733672, -310800076, -131042361, 101677559, -12030188, 91256738, -107307702, -117026120, -123609409, -10077653, -135471359, -476590544, -27805578, 66437744, 46194378, 65847024, 61617170, -9976530, -76946013, 63934967, 14884521, -192533225, -63233, -176802173, -7447181, 89655645, -38940951, 23109537, -31388700, 69300167, -31091088, -43663863, -101684637, -41427623, 43489382, 106921323, 21105623, -1080750, -8747494, 138047725, 31822201, -80028981, 28236505, -163865194, 43987595, 9792486, -42662226, -65009899, -11902282, 19360594, -8025519, 4877374, -6963518, -49362950, -50432768, -1393057, 9549194, 29469725, 2461403, -74430369, 54461, 59766609, 30794095, -147035167, 15486020, 9351703, -16006403, -25948964, -28310850, -63952878, 40941976, 91490701, -59054423, -86682439, 17275229, 24603555, -78347884, 14912867, -61365876, -77217199, 48437070, 43804929, 74487522, -38030442, -12700298, 4072282, -2300479, -11215426, -53078409, -62782757, 69766358, 25563616, 2426892, -23280587, 23913117, -19926347, -44524655, 42598490, -42762153, -43658640, 41557793, 6976296, 49939919, -22191908, 17486027, 32418057, 62901273, 35038944, 634245, -75241618, 56743659, -148546576, -22740602, -5806545, 23308313, 42506624, 44223763, 40947773, -14981166, -90572372, 50774727, -21382248, 73786259, -18580182, 36916982, -25361177, -30238094, 112824202, 49983099, -3475054, 29906839, -14432906, 2183015, 14879873, -21311391, 16710140, 30312421, 9631163, -3789549, -253770053, 37023861, -16616762, -6182173, -23928417, -36644451, -60457040, 90340622, 30115541, 123887256, -211002469, -6024364, -31817634, 3352084, -1152721, 2021624, 5642081, -9266214, -61684553, 108084276, -287781417, 4525367, -22429254, 25784096, 72113998, -53689249, 47641221, -73872641, 50716907, -5589987, -255657971, 33632975, -68297774, 18145900, 80173418, -44857342, -85771389, 116635263, -16573749, 62500611, -448871851, -89949384, -228528500, -175280690, 80325410, 142545909, -55633750, 31652294, 127502620, 60753193, -273865759, -37364393, -431002945, -330249220, -91593236, 59839711, 29852603, 44220064, 43620765, 15005811, -255888373, 28302619, -771871686, -439226985, 40292107, -8937318, -102140233, -87845825, -51174682, 311396658, -166240022, -111763671, -556731641, -263929784, -235705540, -92739418, -414407611, 111619, 76336354, 115245998, -86269751, -134394661, -460354865, -200424746, -225270152, -90835638, -49362823, -395605206, 56286469, -51473167, 104154631, -298084736, -217479318, -136847407, -18752841, -2721851, 208955899, -88877790, -308319092, -328886956, 313714772, -458377033, -246033102, -272678465, 110655949, 11523032, -9331033, 89989215, -127892002, 16473467, 6013663, -51286098, -325536340, -35200659, -10039930, 17672380, 55659775, 137332156, 38006604, 80667742, 141552225, -123287991, -667661786, -68095490, -99960290, 41601714, 73067196, -35815734, 31838458, -131132975, 69243476, -103794247, -157530949, 53066861, -243447363, 46058133, 22978183, -26406756, 11916621, 69285691, 60689293, 87078735, -124538317, 12346106, -30442409, 66547193, 43766528, -20740286, -57913944, 25845665, 90544231, 55296980, -17958196, -48487451, -166721493, 6717480, 15446529, 134078756, 16909288, 9397146, 80465466, -89820057, 71359530, -65195076, -67109339, 17647129, 113749169, 7174045, -25217095, -114394844, 9699175, -6782074, 16612612, -6140969, -68982683, 9594060, 42058729, -41923322, -21446580, -116596371, 72429113, -9287055, 23381980, -57554085, -25406783, -8091209, -5566181, -92574790, -85459881, -36138795, -2631955, 30344931, 120757394, 29157517, -12015882, -27324937, 57159010, -67177102, 17634809, 28117998, 43550532, 11001465, 44407722, 104825258, -104093157, -51408794, 15905201, -109584704, 23256693, -31258624, -145775631, 13343027, 121350005, 9137431, -91486610, 6385193, 23348505, -12404631, -12107419, -10413444, 4404657, 58968790, 75536169, -39986506, -101422019, -13334161, 33225708, -174860060, 13868159, -26754526, -58402441, 20830082, 42397991, 58612142, -137726441, -20017337, -42916063, -63966505, 71210504, -78289844, -15771857, 18340806, -8123992, 25259944, -45414247, -60762584, -40950254, -56573223, 32072153, -56099199, -62859967, -31235823, 44166978, -14553865, 54716762, -70688225, -6444923, 56501944, 48233539, -36034763, -84432967, 39238889, 9351514, -12564656, 4963594, -42563606, -30663049, -82455777, 60924858, -148534670, -16506936, 74589595, 70306271, 8234544, 65796025, -67495160, -15980957, -1967844, 64080693, 10090713, -19679740, 39166577, -13677738, 68230487, 12274586, 8699297, -13020778, 26407158, 16918864, 48360616, 1726872, 1098974, 37106249, 31334411, 58891349, -330839068, -85441969, 102597840, 50779004, -84990926, -144068986, 35461143, -45724262, -144837633, -89540385, -328438699, -105544247, 36188215, 93658358, 187856987, -165031999, 4402705, -70134968, -154025152, -273052871, -396959364, -129962981, -14753547, 115612403, 14048621, -186725914, 188558936, 10487990, -440534681, -432207227, -156761378, 119859003, 16346030, 108127378, -55960875, -261548638, 22296015, -90425871, -429522812, -546863437, 77776581, -299087614, 131144166, 87945268, 134611353, -144090593, 484679, -114239067, -349446863, -278328687, 108833820, -89611717, -670276225, -3350580, -41530427, 215426281, -320143312, -224290177, -129616141, -294672251, 8372394, 87573789, -30929776, -189666823, -430154532, 235982701, -288419366, -310584366, -207695186, 26442965, 158278078, 105566502, 52768260, -466256827, 521602, -40760491, -92049561, -300046802, -36972210, -51249016, -38253400, 46137612, 98703846, -31293642, -81794687, 4621223, 19325761, -276147068, 167011887, -174341559, 26259439, 22403527, -38297493, -108990207, -99210888, 139078468, 24943678, -127807602, 55128064, -100297183, 46170499, 50327558, 48711360, -35819754, 30880349, 115022935, -58087375, -82254715, -24080256, -221043557, 32184549, 9839312, -1241330, 42184155, 38985528, 67773588, 22047792, 41944347, 54863263, 12320989, 30690450, 72093524, -13905384, 27186796, -35805792, 75948186, 48134334, -37387598, 19199733, -46285897, 29956998, 17933622, -28394016, -25398597, 368745, 27817644, -42831924, 3481240, 1287701, -71858846, -36557935, 37112221, -41432489, 17125530, -104882881, 72102673, -28651247, -48501357, 21833770, -66007055, -13534679, 45158323, -40931433, -2568478, -12184246, 961972, 1461955, 67582160, 5529658, -164276168, 32479677, 11873582, -129544139, -65661855, -89151807, 26646793, 19666329, 59188750, 43693915, -51676571, -1922946, 19807478, -119113922, -75785354, -24110546, -41752521, -79614371, 102843106, 40093917, -69112137, 31447865, 45854993, -79021782, -36389180, -49203660, 62635787, 47469039, 127978370, -6828263, -141030669, 3050885, -456122, -61512254, -11050746, -48146397, -23916036, 4292794, 94393365, 56181218, -49182411, -77306904, -14364365, -7728985, 24992492, -47403485, 21448404, 10121053, 63075267, 57190567, -17718650, -20013684, 33579007, -18625429, 88351823, -88966921, 84749147, -15089433, 59008941, 15906766, -26211420, -82722388, -70452727, -16032865, 72050340, -92875913, -52465487, -21437552, -59838679, -23143848, 7184095, -58854062, -67273319, 60490794, 84235124, -52669622, 42162005, 11099108, 8695745, 35578184, 68140827, 206586, 27337257, 117131062, 56180380, 4136631, 18673709, -13763123, 11122465, -57501860, 9101408, 17801562, 33273771, -10892444, 30081630, -79337507, 39747179, 261770, 7824297, 38539812, 7048066, -218663052, -220447794, 150198162, 122892901, 6667973, -85781977, 50230987, -9729324, -128349677, -238630429, -172874227, -114866979, 157197565, 153308496, 13748617, -25002748, 102178581, -30253377, -108411849, -354516774, -202203885, -125355124, -24145519, 200779006, -2698688, 30820586, 103836127, 982335, -254344523, -343373179, -84559552, -558680654, 96870668, 35918888, 83006278, -43676443, 214432850, 57153460, -323530674, -436864495, 192904755, -280202597, 85458592, 163743600, -34176338, -140896574, -39988142, -24023393, 173872873, -354839206, 67122541, -41119158, 157610193, 44517484, 3052257, 191467300, -279272676, -498161227, 71849220, -40088531, -35234842, 16270367, 9920175, -428789228, -487600654, 199698076, 101804957, -240009084, -168302014, 120782718, 13527345, 68424962, 118088797, -353304446, 31817846, 88486247, 57586834, -160028234, -56318779, 23425017, 12948009, -6344482, 115573667, -64892754, -31274348, -15519045, 84523536, -184403569, -37114382, -196261033, 17741604, 49137380, 91643594, -49771536, -140470311, 79345226, -5888036, 61419565, -69074981, -15442982, -80363296, -83695158, -47003262, -90488471, -78456871, 23402616, -11594784, -142968625, -36339413, -42546343, 16472561, -42911962, -8377632, -44338156, -91267258, 86641662, 15616025, 2081723, 23677265, -204241335, 56709938, -2062775, -3497326, -7156881, -70267215, 80112867, 56812909, -29345004, 89268595, 9058632, 45096707, 10532034, -36656369, 8692177, 22388455, 112462334, 14419984, -20415220, -20489056, -54686770, 77891186, 3775466, -30626785, 36840890, -21036802, 149849921, 31456087, 16816663, 101964265, 10468498, 75344622, 86167403, 4326605, -48710339, -63887328, 77202678, 31441946, -20616587, -16430713, 22482572, 33614114, 55153400, -136180118, -95647179, -125041395, 47684163, -15155831, 6586897, 84409989, -69117196, 70846103, 45255363, -25649058, -23692768, -5590490, 55686906, -29409252, 71204089, 95086843, 8449702, 21606211, 113957308, -75312242, -52447282, -51932823, 82304500, 24481669, 62220071, 172627315, -63908882, 12927419, 8123548, -53877302, -98579161, -138731271, 125052094, 54952372, 41701324, 87881044, -9168283, 26158309, 21375259, -75307779, 34194507, -109776206, 69377802, -19771613, 37305720, 179910108, -56376737, -19145804, 78305900, 20939233, 30072408, -146360204, 73614448, 13233336, -2425226, -20370113, -13074782, 38672365, 43420732, 53881209, 39014213, -116209105, 26946178, 38662449, -25716711, 40285870, -7316723, 28375098, 78163132, -23309289, 116465703, -74044384, 28935887, -17983502, -36176831, 25643809, -30793235, -4972274, 33716362, 20889301, 190949440, -40956795, 28052516, 66716775, -69419622, 21848675, -6794478, 70689127, -6269876, 77702187, 127884820, -36386680, 55799685, 11673080, -90865701, 86303055, -76870866, -10858248, -35315756, 26624693, 190409213, -204267040, 15360687, -45279711, -117732868, 84609956, -383336395, -340988964, -142994151, -19609880, 263069540, -79245985, -18565830, 32479510, -74003331, -365288168, -590221941, -72138958, -400747687, 50104067, 332621783, -54382458, -201640785, 145069793, -169233009, -384894162, -140458688, -720737994, -615347862, 23799401, 142006949, -53605523, -243908331, 121009000, -123921067, -162162438, -421119243, -247715399, -500235975, 21635415, -30552691, -91671303, -257672817, 435953319, 129694551, 205723912, -327059478, 4812888, -42039495, 108632877, -40542588, -311935246, 57788894, -289343059, -426594377, 118196525, -272770435, -8979000, 18919416, -128469422, -682017267, -388793975, 160179973, -63249797, -84103115, -107630201, 36817342, 103111722, 113955244, -202338889, -234684110, 23260498, 88478684, 57212453, -94983138, 38055826, -334202409, 87080009, 56888469, -101979949, -86402252, -26074132, 57871003, -16246179, 26041541, -57446543, -139023885, -70368245, 16947417, -79980113, 22887284, -200743049, 89786373, -23274714, 3987557, 5256557, 148711890, -19128913, 22025993, 15086770, -6561898, 13726670, 17665170, 43832660, -62718809, 14196323, -46934247, 19104069, 47578368, 25026243, 106693432, -63102223, -25074262, 24776744, 6402942, -83885886, -6570555, -46091512, 25111584, -6161775, 46996415, -46957519, 17279325, 39879829, 78827158, 29948469, -39117388, 42122807, -59102800, -77362910, 4592507, -55233665, -80534436, 79724021, -64585589, -65500848, 10395928, 67924596, -60757980, -44956356, 31342275, -11052178, 64536773, -8307938, -1718492, 29594887, 26326271, -13609237, -88597715, -37370466, 54103874, -51513426, 102066331, -4815369, -14933642, 55774361, 6098413, -4411401, -35194546, -102077849, -18544691, -74958749, 100904644, 9380, 65134041, 29783130, 87493129, 26004242, 47677740, -152628586, -65934628, -44621505, 91547087, -96479185, 38267709, 70234165, 32863233, 74894227, 109178618, -80877528, -152362913, -114215091, 135811001, -111404650, 49957294, 8931831, 25737751, 59633769, 89716993, -18986583, -106561519, -86540550, 128682137, -7021196, -7114411, 62238663, -38566746, -30395422, 100317523, -31962238, -137521625, -146983072, 41430708, 35620276, -7591211, 27452290, 5580568, 10797296, 23977339, -15134490, -116523206, -145794928, 102087766, -8981021, 8831198, 18360738, -104523711, 4405422, 87322682, 10850199, -66967107, -147720873, 64449623, -13704835, -6022690, 98345719, -107434571, 31931896, 63948467, 1098681, 23022881, -96078143, 21401273, -17207868, -22775030, -66842407, -142446816, -52899610, -15695659, 363831, -6656751, -34715414, 44476140, -38327996, -88068701, -11484762, 39963640, -12115084, 145204499, -26577137, 102214471, -89653678, 34018137, 56631543, -13352064, -53699173, -48587825, -175607637, -95083132, 103511631, 125125915, -102347456, 16753729, 48996300, -244610891, -15974192, -165736616, -274511516, -639850140, 63318282, 433119506, 18335981, -69089331, 22618415, -178163424, -218787655, -248001859, -669739246, -154218510, -4058499, 380858690, -9170322, -91288000, 79265431, -219448164, -422973990, -200072527, -10183148, -103381835, -296035290, 348723739, 10476866, 47492322, 83845660, -364763647, -103832945, -330166250, 78142129, 21086052, -556151867, 234951928, -293853164, 74956067, 126459166, -87843277, 318979144, -277715504, -64322852, -132367641, -31647716, -421274424, -382481903, 161539465, -270868629, -472074449, 145414293, -287785798, 22179866, 100241929, -43200672, -425244451, -496786952, 116012245, -57171155, -2382779, 2658922, -151609167, 99483870, 56517508, -156129271, -88266410, -136317894, 56561109, -20996008, 92672154, 65182932, -309376299, 8210450, 38584847, -34474552, -28662760, 35433047, 24959071, 14696456, -49432069, 101189792, -190213591, 77727132, -47677394, -3331847, -99794433, -12762631, -29772136, 81258886, 20291224, -58943052, -69706351, -81790566, -20220829, -22300480, -59000272, -14431791, -30663935, -10430918, -22262018, -64153209, -51799025, -898850, -93533792, -16773583, 39727695, -15115099, -14484421, 32658286, -16868802, -26187953, -147480205, -21859137, -138676420, 30581595, 79189084, 7721959, 40838990, 41185006, -26955213, -54092713, 3546873, -55107310, -107311778, -49677681, 89413188, -94628200, -51845297, 69274381, 27944205, -26455471, 57873186, -85845456, -138936579, -39478898, 110355094, -9427790, 8312635, 35146359, 37188783, 2781397, 60285304, -142819062, -85131742, -14565529, 90596959, -37056662, 65747701, 67710921, -950592, 11279117, 80311008, -46346478, -6635491, -31799275, 18433301, -30644063, 90177536, 23046495, 52051254, 7907164, 95275529, -60274586, 57269953, -214347914, 884431, -101658776, 85568905, -9865702, -49532384, -38003396, 145948619, -28281802, 46816438, -61646931, -11418408, -39435435, 178198680, -49275290, 31078670, 90118386, 27143981, -23282908, 54871004, -10019321, -34993090, -87313145, 75175650, -77993155, 20357244, 93449213, -35472088, 3771951, 48047327, 17714063, -68056248, -91914088, 83899662, -17593076, -44059850, 19740695, -118973166, -59746847, 41973032, -52593216, -118886307, -120804399, 48972595, -12245010, 21279588, 8748101, -25980741, 37133623, 76040901, 7999934, -198307186, -2741598, 23984032, 24232740, 31031026, 63792996, -172451019, -56855988, 105861410, -79925805, -152266636, -110200733, 228601, 4666963, 19087633, -13627706, -82581557, -38523231, 3150882, -6026058, -42067427, -135923639, 19840585, 48270926, 14743408, 16130401, -33177476, -2615338, 87585934, -26965491, 5036539, -133786827, 110648237, -7623889, -12854096, 81164166, -88132575, 1080331, -89887127, -82605518, 6962663, -133308291, -41753143, 102815643, 50003909, 206944481, -194201276, -309058785, -315163940, -149575517, 357670903, -70935279, -230654716, -447414, -91072723, -217893884, -129699558, -265853941, -281171530, -194611862, 523958564, -125498295, -18206567, -11259731, -136258215, -431356817, -335641474, -214577168, -42294025, -224914595, 389436066, -28291196, -42973418, -78215063, -406130821, -584024489, -256129205, -239924550, -271321565, 55233102, 432165712, -474243820, 73081270, -72321691, -89088924, 261418164, -6141860, -108141057, -32304514, -116343968, -349119812, -321377635, 327176839, -349808365, -182712704, 116563000, -170922652, 48631806, 258019120, -46053063, -570555866, -307971716, 163413480, -54786019, -55106219, -153634101, -73643021, -129155591, 167454004, -66121481, -82111850, 9199457, 98859370, 36597781, -81030108, -55288315, -60269780, 57380743, -127367452, 75211175, 16196573, -46563879, -8678197, 68270646, 15664503, -55757616, -81992850, 10387055, -36895849, -76056972, 1034379, -2613872, 31209001, 16391480, 34994025, 11124267, -160063922, -23782188, -102054611, 101978116, 29377660, 40663581, 31583328, 114263378, 63713767, 19555293, -69378376, -148370489, -144219115, 93059137, 34706622, 4673503, -31840127, 103761546, 98279782, -28563390, -33115078, -168967560, -132387564, 102801517, -42282339, 48453823, -7785146, 62259614, 68618849, -9419659, -136494920, -227405563, -123702385, 118992470, -9529246, 29939447, 79395771, 55239435, 90222418, -79451822, -1692222, -232023269, -40759657, 87113731, 30421482, -16253252, 3153056, 72770812, 65670356, -71764275, -15516605, -235346869, -14539624, 45647752, 27707774, -15987474, -52834339, -15736593, -9705539, -88953070, 111345463, -301653594, 439296, -28281813, 114483796, 27837794, 2189614, 32617498, 65493569, -164950490, 183833212, -202198491, 89555807, -254292130, 6215842, -23279272, 248346478, 17450068, 92414804, -103030019, 146104857, -104216479, 46684470, 88150464, -33174455, -124495633, 149531990, -34252465, 59386134, -132532269, 1886698, -101646021, 16666904, 53631719, -28734939, -56258895, 134137258, -7800529, 81627026, -18353749, -88108152, -71500659, 24217047, -27976211, -99302001, -87467663, 100024007, -15827015, 83449297, -35953313, -110770486, -26818693, 25995700, 72797880, -64280719, -93501106, 15416925, -3914205, 68487704, -75007945, -173769310, -65519303, -27838342, -31684577, -95563687, -65770321, 33163249, 36355145, 49541160, -66763960, 33584181, -36552187, 33216678, -5864657, -204385445, -46260234, 66092260, -10425231, 95973201, 30193275, -40708512, -20768542, -39017573, -77115819, -245299548, 16190303, -13305901, 29161986, 77773839, 75287037, -29567903, -28787496, 3282615, -128719538, -262018353, -41122966, -63307129, 77385224, 124487668, 56593511, -23915423, -43319348, -22390019, -51852353, -20417759, 74618898, -93352385, 106158093, 78034513, 67453615, -189025477, -117587693, -246466264, -280815303, 112341121, 92975825, -59069652, 86445265, -60563583, -142106906, -148987800, 20524641, -146085396, -284172833, 586646438, -157551587, -54226872, 34525778, -312281072, -393624693, 75914532, 51473700, -249233633, -559756279, 684070945, -380532026, -159560487, 30223798, -230819285, -544197619, -189664140, 166630998, -206646860, -113165215, 521745145, -355763525, -166498557, 18992653, -425058663, 168300137, -205950737, -21508863, -196989968, -149913236, -311516613, -294558287, 283954591, -257460356, -193188071, 34998834, -21405440, -110758476, 5249132, -45474995, -47456317, -330368012, 76690517, 33492059, -7132961, -154530853, -42760555, -138681054, -8394889, -25601575, 2459473, -29293269, 8552790, 87204210, -14992578, -61097451, -156207174, -117884815, -98039091, -117102519, 8567918, -11656847, 140636474, -7728134, 141605958, 14046784, -48580702, -203016624, -157584265, -3345792, 48776545, 7055405, -57607297, 51522966, 52065026, 42691872, 15173623, -338934392, -104999274, 28850758, 47966328, -33552378, 41166920, 28223468, 48115615, -4750953, 30319465, -216755629, -117676146, 33684798, -49778704, 81907965, 116991282, 14999840, 83320200, -31144721, -152391419, -164277196, 172973, 140209600, 38442262, 91442689, 15115085, -6829557, 31420924, -4619922, 1148380, -47687314, 26880421, 160294428, 71294427, 20475194, -17010061, 4436567, 31209504, 28279793, -5745308, -61271999, 25013372, 164988220, 29836334, 23945643, -102744944, 12960898, 79852127, -39686028, -12945346, -75648345, -42633392, 116853520, 55259679, -15664816, -201647907, 48529480, -7771640, -71235642, 91967300, -167999566, 20718031, 13374480, 68474405, 30697061, -226341873, 52539967, -6488740, -75716682, 185068697, -104633607, 47101956, -183021069, 39101876, 10699787, -48275925, 50123107, 57937950, -284037322, 137051120, -162378579, 21515578, 162450269, -85495971, -90464391, 41273233, -36785409, 40449467, -234128520, 46318445, -84410824, 34127343, 73544592, -97693175, -105783470, 62018286, -46709206, 70302770, 38759459, -8765840, -86984880, 28357293, 36373712, -39494369, -20966247, 74969359, -30058669, 93659386, -9191065, -84610268, -81519812, 44544406, -40836215, -49203258, -61915919, 73900335, 3032330, 92758074, 685928, -111174501, 52306667, -62258177, 22111800, -113721684, -57150140, 14308721, 54669827, 64456157, 73140763, -154618129, -47246188, -39696634, -14716972, -124475203, 2838834, -53115215, 73198579, 61522290, 9445960, -58615316, -69263421, -105352893, 75248137, -183341175, 6322111, -5488314, 146530285, 118676074, -27326386, -25447439, 47199473, -165963322, 85012324, -293490648, 80105267, 75017668, 172034174, 84309973, 23702763, 80881342, 11248009, -61520971, -66114567, -246605441, 171656340, -121451631, 199213251, 140417740, 123629794, -133715525, -98974362, -158467323, 69170646, -168938592, 146226510, -293213487, 177145362, -147386968, 41444059, 98262690, 144645467, 19319037, -33058003, 237067953, -58219954, -75382106, -55145141, -225325704, -377092749, -340483040, 44951618, -435686737, -211008832, 835571289, -237411633, 14789321, -183766261, -273021072, -568563581, -428768158, 113937885, -247604579, -168964177, 241999626, -361477971, 227861434, -80854356, 4496228, 124810591, 27335718, -246289238, -216672942, -219775185, -329175889, -235817224, 291777939, -230444118, -96988611, 6926159, 10272847, -212051287, 110676125, -27296539, -161266685, -209035277, 84875949, -96975721, 14643013, 30162906, 81435762, -396836996, -167149916, 35360724, 62694781, -100313447, 147556916, -64403445, 54753654, 30631542, -97752765, -284391910, -47980409, 43554269, 65913104, 154600084, 3915983, -21043433, 120298058, 176679224, -30300008, -333517045, -73174961, 102954388, 19645350, 89284949, 2771766, -125724927, -822711, 659382, 40819790, -276512742, -96238799, 80203936, 74433647, 80787443, -17950110, -75476035, 67402519, 83734028, -43713473, -52894700, -34679078, 111595757, 27404973, 37967157, -28650239, -22276741, 20585034, 41466437, -134142116, -3464757, -40111344, 25739063, -43032598, -21575021, -85259408, -25400320, -39493185, 65658823, -64095736, -96534178, -26690515, 93561642, 55528495, 75948946, -81858248, 39922543, -2152495, 21959260, -160257891, -43944642, -10165741, 167845249, 97141996, 64410359, -117979504, 28415473, -38823895, -18354414, -20923398, -49861871, -27221089, 151456356, 41424103, 39363954, -211168930, 8676534, -90600491, -153602451, 86828403, -60571346, 19547138, -70048645, -3576674, -44877745, -314321488, 33364825, -9338267, -292435139, 129666463, -17497838, 27886122, -60101554, -11157284, -107900500, -106986538, 38973369, 73045805, -288638860, 151422083, -124365464, 6401646, 63330695, -54702356, -5542649, 107743487, -6177722, 129950941, -212728709, 5481801, -113155581, -36524151, 65668128, -80735885, -1275938, 46162672, -36744766, 34809295, -33156712, 24431344, -30145623, 33194091, 142333716, -88639989, -61181381, 108701237, -16155964, 97094700, -85553572, -46393417, -86744353, 7530537, 45636289, -43959588, -39775260, 35098121, -24808500, 44517338, -186598, -202109367, -23829965, 453494, 20162731, -47345597, -59045721, -14936879, -10802731, 90456478, -6178652, -70153914, -8397815, -104845710, 104136132, -4223553, 24408678, 74043073, 68312027, 152869478, -36352217, 55789761, -60622167, -178900823, 62319458, -86978875, 29463576, -36635544, 6172381, -3331457, 34784850, -34665573, -140881300, -301358253, -10372536, -204187855, 140200451, 33318736, 70319198, 63886128, 100595489, -140375242, -85338756, -34981102, -3236367, -111354753, 173373848, -18125655, 63741721, -90125255, 98704144, -441163629, 96147940, -78661561, -42082410, -156476304, 101526946, -50701071, 112680271, -196570516, 80110282, -37778962, 306317449, 196611181, -86670689, 32233670, -129984111, 69801182, -209501162, -454046100, -395021677, -268889725, 332862169, -347207159, -226237491, 780040801, -175631195, 98953821, -160116628, -275397509, -499716699, 19112376, 340448886, -221559078, -292327702, 722760022, -374620527, -86893767, -384611011, 140661716, 85509971, 17050914, -308052152, -193358719, -176820800, 148285195, -296237916, 234075040, -144284904, -204557568, -81835158, 183315918, -269245178, 80795825, 37105601, -50524037, -190412894, 103092954, -75120978, 20228093, -74754909, 241752133, -148371130, -152155831, 62983684, -98346680, -248730272, 76152794, -245278537, 59157528, 4855906, 62394179, -241272211, -130506277, 104578145, -76982513, -6305313, -15450167, -102342397, 46695482, 18308075, 17822882, -111267827, -166782767, 125269607, -28767049, 81858881, -12897170, -85386835, 34636147, 112036213, -220209867, -16227055, -47167860, 145232201, -83586082, -23745185, 30712480, -99543676, 10724251, 44780452, -39983835, 119693369, -31955384, 90771325, 83199866, 33506479, -15387154, -102463409, 74820042, 66749945, -45309782, -89677535, -31574126, 55013694, 12050712, 26361573, -128945932, -120517015, -46581108, 48377872, -145400047, -5066617, 22089174, 100412548, 74644782, 64946517, -49593084, -90134569, -52615479, 1998913, -123683296, 50262593, -50708830, 61988246, 17883534, 56238011, -109131120, 28140025, -17795965, 30886602, 110651791, -195407, 61100595, 117099077, 42500813, -16279962, -219104186, 83556436, -32195810, -115210481, 57533726, -61558306, 6883875, -67030154, 31404596, 145906568, -258032888, 84864959, 3698470, -223460332, 120607741, -24196088, 37815083, -12824138, -64303719, -52879006, -67590721, 18529672, 26484482, -239156544, 106472157, -56053851, -64246699, 30658072, -105232164, -90659529, -44008657, -43059502, 34419674, -162769467, 118528053, -27568601, -11569276, 141031340, -62843114, 45113452, 77487044, 48189100, 105370477, -81253633, 5492879, -86689159, -5525589, 36158845, -91327667, -71946196, 105190791, -61701369, 69350615, -64811490, -225550398, -21689795, 20497002, 35408832, -3600820, -56032602, 92551902, -74669950, -14993685, 4655477, -342254251, -39279375, -58949910, 82420141, -48762958, -47233615, 92900157, -9113901, 41548949, -24681477, 41598760, -55878561, -15208697, 80537342, 29777, -1627728, 101498403, -92909358, 61444633, 48533283, -51637076, -22961743, -65365627, 90878949, -127148092, 32818131, 69589823, -55006485, 10269869, 58276057, -170800909, -66039689, -117867239, 40347409, -101496637, 16923077, 20511750, -149345040, 55461615, 139564842, 130492419, -31147238, -76327786, -64538226, -126027063, 173707187, -5185988, -15642939, -186544478, 139267251, 112725116, 28018503, 50646435, -69686882, -218920931, 191828147, 5109537, -43177579, -396989286, 42193025, 215130225, 68644419, 132530034, -61617550, -147853360, -10625280, 59528932, -18399511, -291451782, -100912839, 60729060, 308745831, -229213849, -192479089, 371203035, -309324026, -134289488, -46192966, -177144453, -405029863, 110412538, 465741158, -79703800, -294759899, 164499819, -204601154, 183447406, -53114805, -433717608, -65302245, 241277367, -248040393, 180561617, -19798672, -377869666, -242635041, 253275216, -149673194, -385605961, -204502985, 199155852, -14024516, 31225044, -6033781, -102303222, -246031776, 181177124, -51269852, 21188205, -34243882, 213338479, -26590334, -165120751, 46946056, -108479112, -369007230, -34408938, -354467750, 44144381, 33289187, -285211235, 102989078, -92840895, 48242036, -143542036, -62577099, 6559097, -68620801, -34250144, 112076327, -163172886, 131535903, -23744656, 43406487, -84844492, 105805837, 59938703, -85633568, 67925632, 92875056, -46380259, 35847388, -57761740, 64414248, -55212885, 39903790, -47491670, -141354680, 53837582, 44271272, 117382415, -5339889, -61101064, 80854014, -78438066, 104467466, -31932190, -52635286, -16852051, -14043105, -14560684, -5445271, -71885198, 3265928, -16750993, 31964075, -82474731, 6389152, -70866995, 73960431, -268689334, -7708377, -73819213, 49093422, -24443330, 52314978, -105843648, -68993479, 15567136, 1107618, -4054978, 32927115, -10593818, 87110981, 45819219, 59777405, -110198162, 63718885, 21289043, 30152027, 120465748, 28909365, 31573664, 69799908, -19875348, 71059570, -191738814, 5577373, -74925572, -181804091, 177101880, 83255038, 42284496, -29672146, 14758420, -15478255, -143855259, 41784197, -6638466, -271332711, 224102914, -615219, -5529298, -1126425, -61305292, 29699916, -58192912, 20259555, 9534423, -292849213, 32518171, -21737933, -19566186, 50117537, -40836424, 15675955, -32796439, 26102848, 22754319, -126729697, 61286595, 4640709, -32860741, 109514244, -76053113, -1080969, 745757, -42521708, 25205962, -90091802, -112629123, -32579094, -40799107, 129394308, -70787966, -60022589, 77977397, -17247804, 71571238, 55324528, -250873148, -69023028, 1374469, 80607049, 25896750, -16279932, 129081592, -33778857, 50933629, -61872859, -215865314, -3272718, -13237854, 85458405, -9769185, 3977209, 111179546, -62294111, -12853584, 40341437, -202596530, -56058746, 6628725, 128803834, 39729081, -2704591, 168938488, -129255772, 53601258, 31443190, -265373498, 8197394, 3660222, 3548282, 12084194, 13275580, -9117722, -162416950, -14156044, 43158688, -416722447, -124942593, 23305442, 106383719, 38746126, -26528535, 118858851, -24337862, -44863239, 66715814, -78308620, -120216668, 33750266, -91233969, -20167422, 101341739, 127050057, -166531876, -211504087, 174681038, -265431553, 90714701, 169087961, -133474305, -47131754, 62969349, -141629651, -32805134, -231858164, 24833651, -89440726, 112949133, 98825976, -163252607, -350807011, 100588687, -147569418, 193433359, -252699375, -345775187, -192297861, 532162130, 179071918, -210780308, -156031117, -362812638, -136165231, 94717734, -296106517, -250663161, -49194310, 404990852, 41522000, -141005039, 100354098, -465615392, -63038491, -194256261, -497335225, -576899290, 316422224, -34251891, 273383886, -175971851, -127890602, -312538356, -104177170, -613953471, -194601357, -231199816, 208809167, 216919854, 152801275, -145404831, 9192388, -384832561, -14890934, 73089801, 21053283, 12477318, 185821950, 138704389, 106272206, -76577820, -96235529, -255777240, -36169078, -215913251, 82386099, 123237409, -84617414, 43678757, 57999086, -131565139, -60784474, 32209966, -130440101, -96693747, -61509542, 42814821, -22029873, 79703361, -17827271, -9817706, -78448944, 94176896, -19303557, -4993271, -12752653, 86687811, -55988457, -37240304, -150226161, 48962273, -157193214, 33675130, 54609675, 67542724, -6210559, 169991404, 160048068, -45025643, -95261365, 46632543, -145076215, 72332911, -37186317, 38647916, 47375482, 46280626, -66776000, 75519048, -78110129, 58504187, -69290593, 64482927, -47087308, -50577469, -9879264, 69635704, -55862874, 69148846, 7305375, 28651487, -94115466, 74150987, -65668494, 34863133, -7349588, 49617112, 505215, 88595957, -40710680, 9297720, -43091912, 179699540, -48704691, 70273034, 9090312, -59041321, 49963601, 59038483, -32897614, -9489886, -109200962, 43480389, -124953508, 26337080, -50921250, -239649624, 38840555, 84376961, 13476650, 23672843, 2582742, -40528584, -48608102, 87394573, 53019695, -203166008, 120545283, 33430703, -63743211, 19203797, -115531430, 8372961, -135602608, -33323277, -26415939, -167280361, -776907, 5334720, -26531084, 84456183, -78221776, -33249319, -35537813, -30778065, 32565396, -73352136, -39199252, -65369494, -123599343, 68709813, -49288388, -65634608, 10890639, -77632055, 35456248, 14067067, -183861509, 5649243, -41684754, 74077792, 416209, -30588901, 100369394, -11977349, 64017519, 13081605, -275013715, 7487263, 1521258, 26738202, -10033092, 1814455, 128080949, -40594187, 63833825, 67948118, -290112913, 53089779, 38907547, 71376354, 17152719, -19789413, 71213283, -20182680, -26863666, -35211004, -194803894, 28268870, 65851256, 47920007, 24247266, -22768399, 67435764, -108558856, -51657747, -34419890, -6144049, -39970051, -9046931, 98645233, -49539309, 77576861, 99080279, -130356237, -105537310, -79817384, -96715637, 69749467, 2048050, 129890561, 113893464, -42491637, 70801459, -107730933, -51291462, 81621051, -153928846, 41087300, 55700563, 87065928, 95045604, 23711508, -279239, -55271666, -82430892, 51321525, -50669435, 105939798, 22472350, -190660447, 186698124, 115578935, -209474877, -159573644, -525125206, 6813260, -141826198, 322454989, -64678088, -252066642, -207890511, 179742754, -142717674, 219994605, -290780723, -518506408, 86173572, 370017737, -72688371, -104831055, -427366108, -268803686, 12945098, 32427549, -296266198, -283697069, -12837320, 701770842, -72485276, 78565165, -507888377, -663223147, -433213681, 12685225, -375522435, -297590494, 368289649, 79315074, 36362190, 192656368, -366282642, -327508271, -59472702, -174631074, -454785854, -148990408, 12821074, 129419714, 112543717, -261209220, 124141775, -200881854, -76673001, -32257494, -125886157, 38616315, 13909376, 131535321, 118705653, -105583660, 80357023, -287916183, 30705217, -61363697, -89156866, 106260993, -172325999, 117213793, 101975359, -121324733, 18004239, -60030077, 77673852, -130224288, 10446141, -22443349, -94495624, 101209223, -54173891, -28457340, 58508288, 36426716, -38668707, -21407399, -64283475, 94007872, -95154621, -24144538, -51447347, 50834808, -65353073, 108644038, -29946571, 25856527, -23305958, 6944644, -30777317, 15854713, -103122003, 35257615, -103291564, 87608501, -100710034, -29896313, -2576113, 98017663, -13149018, 6769777, -140678078, 46054218, -95072873, 61792627, -1503670, 109543540, 31625252, 40293135, 9235131, 145041242, -73654518, 11918946, -15572208, 109431155, -100917660, 60380131, 29904967, -6334792, -70178613, 107515447, -66058926, 19105373, -75204216, 91554813, -125370383, 51320080, -52623160, -10197895, 35858791, 73591918, -99458843, -14146280, -87790355, 86500637, -36603332, 49809307, -26549218, -210945353, 66068292, 77258386, -109159179, 44621632, -64606182, -1846409, 70866585, 33626389, 40306266, -134014949, 169730872, 37053611, -61555021, 98395087, -67493290, 97252712, -76882981, -9729508, -12604033, -49662787, 64388908, 50241359, -105705589, 68491518, -33688501, -31567518, 9228448, -17491614, 86419739, -61326448, -68505168, 52844122, -15908388, 74578397, -1506364, 31216804, -17225116, 12025463, 25965227, -101019867, -94826885, -29479010, -16194638, -5708769, -34507584, -76297440, -19631827, -96331649, 36527075, -25832348, -174362570, -93976438, 34537081, -18409947, 77451445, -28777981, 15339911, -105931319, -11400815, 18517947, 905821, -52358251, 95291987, -21500768, 35683721, 15727302, 79166338, -75173773, -407461, 32774810, -68572149, -67276925, -35463922, -27303500, 102932461, 24665309, 45701753, -33521686, -35798684, -15881440, -50464675, 51744290, -16131360, 19739518, 4535741, -27966460, -103462651, -51502746, -59705779, 11745825, -91226414, 15351002, 51525012, -68047665, 29042872, 68403333, 70986398, -10072982, -26540337, -20019546, -180358827, -47224250, 41388817, 10731022, 114166424, -32650225, -135840714, 29317915, -161942065, 27716827, 36018375, 3009436, 181129, -163065642, 24135550, 85870042, 53425297, 4471838, -517515719, -144558147, 69859169, 278658599, -330435991, -7697738, -148251697, 53673685, -20728003, -153628170, -197908208, 24676332, -55514507, 450118899, -355626911, -399475187, -299979091, -208221316, 75774603, -95392779, -478721827, 73657878, -30890485, 307731599, -520702302, -46031401, -258049905, -360434055, 159203902, -473676741, -2129375, -457844347, 309855402, -116233446, 231755927, -31696357, -351461053, -312971979, 270467162, -171199903, -188057795, -254108369, -131004930, 46805777, 220279306, -150439844, -14015435, -73189758, -141062066, -287095666, -159400642, -64344294, -174033701, 118735842, 197114557, -60815621, 95922910, -88177711, 97078003, -53982388, -202703387, -16771544, -210045189, 97124539, 6219493, -9730442, 92499644, -122168571, -74256152, -44613831, -195141047, 11029940, -337581158, 81116945, -7543082, -78993775, 122526795, -29295089, -69619082, -89017615, -23503676, 10069640, -132834151, 91673277, 7372126, -41421868, 25702540, -75546086, -94703339, -44525769, -58024641, 22421956, -18956693, 9055288, -44552855, 14358826, -47454976, 48799302, -94051160, 29865850, -21101397, 100988664, -24840245, 19171005, -88216662, -61456125, -128190145, 163664669, -70091479, -16932052, -133333072, 196543857, -121110834, 50940834, -180602521, -46809051, -35817072, 93184069, -94035096, 46711519, 48330657, 133193672, -33402089, 84778018, -81283167, -34077112, -51601585, 141177535, -31470064, 74878141, -6693767, -138972759, -38369857, 85123286, -108788110, -80012538, -19589419, 35493344, -24885921, 24256656, -116804302, -100379765, 43157712, 86685278, 554252, 25935313, -39601002, -759445, -78703523, -25407188, -13217692, -157459453, 40578119, 39830010, -84666185, 31931534, 71699426, 62900111, -152510688, -11914586, -35208929, -39842032, -93809538, 52729454, -720383, 49148239, 36121096, 12993834, 36740981, -34285713, 38043581, -118012100, -188313499, 3224085, 49168278, 12766704, 12885435, -18394578, -102519706, -30930426, -23757260, 44608139, -180881783, 61965235, 101675667, -14281353, 73903404, 49772784, -14973461, 24726825, 14770268, -8594107, -55142038, 41467730, 56494076, -14900804, 1158056, 46282858, -24994802, -31688679, -19381305, -22656964, 47668021, 69655716, 57665423, -41880000, 26253982, 47211975, 75351566, -10470637, 9228827, 11583356, 34366950, -35164058, 51848952, -46347778, 1914007, 22192243, -9670674, -13892599, -18310588, -78165404, 36207970, 20085944, 51947664, -52125350, -28244695, 58251586, 110238239, -54537054, -71001977, 26969289, 97508244, 36829721, 127593815, -107644022, 43936070, -26783766, -59297539, 27168222, -110047318, -11916876, -76473191, 44658348, 128049046, -63807607, 46259042, -48750449, -66739477, 10799484, -132746592, -45975905, 38756136, 71331486, 18211106, -23992168, 150811762, 13410264, -251114309, -8654101, -212427750, -51151529, -65392554, 371164203, -634438634, -256610841, -112935297, 105071343, -192448661, -168482199, -163569748, -254426807, 141654000, 497467220, -997688, -189095497, -181058839, -122095868, -65303162, -455375612, -404430807, -248768836, 160466626, 362403363, -595843434, -134013370, 60147040, -138639525, -394017249, -196100369, -504790425, 149407268, 206427246, -80046527, -183134124, -14415955, 528941, -289361000, 385812610, -257521570, -497089416, -167914852, -35258003, -39159622, 51448904, 13264985, 122737989, -187515453, -96349932, -112839371, -112806395, -135518163, -325159073, 43251388, 131374925, -58559339, 85333422, -103020854, 114821911, -138473824, -240720913, 72417043, -591171443, 5195739, 48589773, -10237662, 53712182, -54983746, -27763484, 27001737, -78954324, 8366385, -171618059, -52418232, 64647146, -98245330, 28893657, -140108094, -138152093, -13197827, -150394499, 92090592, -36845300, 23119835, -42752039, -113879181, -30392613, 88472553, -79815753, -50863765, 23412706, 61445680, 39363876, 94239876, -26549470, -84667608, 95711447, 838016, 15698543, 39482862, -72294563, 120335527, 73685825, 78396998, -8913065, -118610203, -25738891, -2071858, -115854055, 63268192, -107776456, 28951453, 61596572, 75393900, -107217893, -179577917, -48093393, 89362845, -195494711, -14575646, -70279397, 114797600, -36844850, 86146876, -59735708, -87488860, 28352592, 173422486, 58438588, 27388865, -71734451, 89565173, -20804824, 121154688, -42246692, -10618092, -8500367, 168526188, -38888101, 14446056, -76984048, -134018287, -13301091, 107396692, -43994781, -37353553, -65518923, 112243719, -33852130, -34823857, -117779844, -37973136, 40800143, 28113579, 46612032, 47702976, 28072424, 23792133, -7111594, -36667187, -32989096, 4157681, -14296082, 43166440, 10936497, -81342876, 34480095, -29449679, -93721360, -69161423, -56056298, -18750671, 42946909, 32245453, 43956868, 3291581, -6645469, 15267436, -115594216, -20113226, -14114005, -69453031, -112954058, 21099962, 22768144, -33559375, 14888620, 33010751, -75810239, -48318103, -35971496, -44344645, 70698015, 67768231, 54147251, -117464326, 64486593, 38393885, -147626281, 56583639, -23682827, 13030014, 9136399, 18157333, 87488897, -70783451, 17442327, 46051662, -85910216, 58577549, -47546297, -35341591, -768456, 21531623, 37882641, -60480725, 96177824, -1216079, -25666932, 18086975, -66498689, -50329611, 133484676, -36667924, 18360972, -3307130, -28811086, 71677707, -65491997, -61227027, -41899852, 126613960, 67461602, 73496714, 39718047, -285618156, 43475032, 94667010, -71747065, 16441440, -251183003, -47774386, -7782132, -32583613, -5433978, -235219806, 42864744, 13136021, -217159182, 67066573, -124115311, -65552168, 144761249, -28198352, -160076365, -102385931, 47754571, 57745490, -116016194, 70979103, -163050607, -276772559, 182727367, 278488070, -387286454, -142633170, -113787293, 1288867, 32082997, -339388132, -80098279, 107995383, 115951307, 249816164, -95939249, -96617721, -278356135, -191613525, 35901200, -270836413, -186607242, 110359862, -306588233, 462499827, -428225845, -296887696, -191255182, -97740009, -86910829, -267067194, -187294111, 121686742, -203382850, -6737844, -73836550, -18535355, 21643737, -106481574, 296498597, -228657827, -239059582, -54070666, -56154832, 6006478, 105579145, 12672013, 22659525, -277719140, -205989495, -156796649, -246344775, 69211610, -115764856, 22559803, -4879442, -13264831, -46896726, -35170663, -144559473, -126718044, -44904973, 534652, -321917415, 113455519, 145630941, -234599218, 4129824, -50559368, -99856079, -57273984, -121512406, -23202715, -196435601, 19159710, 135763749, -107359156, 58672819, -25279578, -269085497, 45455318, 1364029, 68089671, 52466955, 146195397, 55884641, -222679436, 26546508, 12321297, -24375791, 10098355, -103304625, 106737070, -15222025, 153100699, 79600364, -165912777, 46486020, -44578288, -153513357, 48374511, -78092620, 14437275, -34980837, 34459192, 25755469, -122526303, 47119595, 5580460, 9141248, 4024305, -125430614, 85026629, -40490132, 65866470, 11802102, -188148424, 26508905, 89700639, -92223324, 6853457, -188103154, 107803099, -22489926, 49708385, -72283141, -33995140, 13175726, 55006884, -97150810, -13310616, -98680116, 126686290, 65772325, 43291532, -113646597, -25118042, -1315385, 183131218, -34583040, -21366727, -201925337, 72834320, 55157032, 58921862, -53549021, -115724340, 31630673, 34515571, 73942609, -18019412, -82862079, -79686455, 28781537, 52022342, 3758997, 61556689, -27905969, 105602376, -3840139, -46419695, -55122536, -28766353, -45892440, -11597108, 48308074, 76371387, 14646632, 131262317, -13722543, -4144188, -77774696, -25817337, 92031583, 44770937, -7617688, 2371490, 37692763, -7964619, -148239747, -51464774, -25769766, 60042042, -15819354, -47673225, 26328743, -70327960, 6806301, -317084, -142436475, -59194453, -53577777, -34182403, 3514007, 15716095, 51093876, 18087415, 42112775, 36161300, -144543052, -30210793, -76869860, -56714866, 101181954, 16402384, 3226414, -80542892, 89942813, 18887905, -157742098, -24037333, 4932115, 44146288, 46898246, 76409936, 74532703, -68715878, 60975105, 104432233, -80373846, 64965270, -67289867, 56667153, 48061308, 106989428, 93496948, -80622740, 94110951, 39776117, -226797789, 27127678, -126651928, -69715664, -62601559, 32846708, 27176255, -182320639, 39081436, 851878, -218202591, 29832369, -86177297, -101338848, 7984047, 91153748, 126675978, -63065767, 86488776, -32062326, -195965156, 31985927, -37254382, -186916888, 169740900, 48338801, 43562852, -64247042, 13896556, -82171023, -57046305, -68384372, 90212040, -133493513, 98791175, 332585335, -220661864, -115781642, 20431938, -17475121, 14869690, -162639484, 59602134, -30691361, 458871, 337043524, -477431089, 88570274, -335505277, -54488454, -105448298, 35474498, -125695527, -15628671, -337034553, 227118358, -449747682, -253436863, -360048860, 153133452, -242617711, -301232725, 26920790, -145393118, -132515088, 148679987, -101372793, -18309020, -481441, -367688268, 162134752, -252567738, -248880342, -144732609, 258174747, 20685392, 104410104, 51021848, -134000883, -185974985, -194837540, -347580463, -202714071, 8911816, 168865830, 46099279, 64655684, -171187967, 86247846, -40348411, -107569240, -32487065, -242120117, 3557019, 76097354, -29675083, -6008686, -11522382, -57450492, -150891766, -179136917, 46465565, 43783810, 19499106, 187123194, 75102761, -18938560, -187295824, 105131261, -178306088, -51644847, 48460029, 79715252, -15525219, 221645311, 53650830, 64269371, -136035115, -33846736, -39018665, -199389115, 60008664, -26209369, -11294892, 80244631, 19406499, -35119060, -125869304, 83941579, 18858179, -53653028, 25430355, 34405757, 50367154, 59585966, 32391205, -22813763, -29961955, 29492894, -33919264, -111887559, -35990808, 29509263, 14661152, -35287213, 17941892, -68169706, -107577547, 3940255, 18922666, -104512200, -26004063, -88510923, 107655346, -38975365, 57010364, -52962180, -87681830, 2168898, 47083903, 47083553, 6837661, -73425785, 46472687, -73815450, 62307920, -35130817, -104231335, 57770036, 47684476, -44564389, 18581102, -31402584, 10523219, -57410005, -10076993, -54106202, -87750070, 18305637, 90416871, 7817632, 31346731, -86025454, -28499864, -45077216, 11844054, -33705715, -57213534, -11635855, 51924624, -31501405, -14885039, -79000935, -37777316, -41508172, -9617516, -24098510, -36556363, 3800494, 54432511, -75539440, -27707186, -126194000, 54038823, 56327485, 82693718, 78389980, 78943111, 56291152, 77564962, -18618627, 16620371, -26598442, -92739575, 49302768, 43742646, 13980268, -51123824, 46769042, 23945849, -121140666, -50495178, -145813450, -22817036, 97348370, 69041178, 47598287, -13978043, -14456226, 68692528, -129500329, 12070710, -93210846, -106902465, -5041491, 47166437, 44605643, -19086517, -11751999, 58967955, -36343, -22321472, -74206807, -71004078, -42725053, 38392972, -38951792, -62353928, 34678847, 43637287, -210164279, 12389897, -24621230, 51981043, 63613445, 32583490, 28572125, 49379028, 40462002, -56652904, -93613252, -31371098, -7003410, 69082238, -83948418, 22249011, -28070731, -95409915, 118826978, -15772717, 37922457, 31014899, -65608867, 25754420, -160492033, 101349741, -66605769, 45603942, 143261299, -67158073, -196234658, 57974759, -4828195, -161909714, -119955637, 199609488, -205306709, -132698819, 109916881, -33458244, 36883369, -57094369, 133228749, -8225747, 263320953, 326398611, -121399082, -282620698, 22475708, 109301336, -374383003, -72407663, -119764425, 215275034, 105770610, 281612545, -395764530, -321670920, 33704530, 37146542, 31980868, -263046443, -414332539, 305851936, 60436394, 231060818, -135286719, -224627271, -399310470, 16267147, -6781560, -156956255, -351286322, -368454725, -152633891, 143663377, 2993608, 83335243, -72233833, -193962917, -403562218, -238235056, -292880923, -144959435, 70354111, 64520203, 123948522, 81087753, -120147660, -312749684, -503207088, -100760803, -80575764, -69731630, 184053510, 180440992, 34748130, -130247250, 7942494, -159084305, -227032319, -74380703, -65521657, 10468078, 179404020, 81863932, -23955060, -212536886, -27141415, -240812361, 32077760, -3951046, -122273967, 71072944, 157502219, 107198834, -11414746, -123986557, -87525219, -239092872, -12261122, -16645571, -86737692, 10694931, -110584982, 82069665, -18529978, -266170740, -130124867, -122455813, -31979810, 12625795, -157351807, 19136878, 1756888, 44745602, -14129689, -44217709, -342050, -47949973, -2679663, -39885446, -5928058, -15319267, 44337921, 117603593, -18939748, -50152238, -55625599, 30888215, -56430478, -48368707, -82684204, 82362190, -31687722, 89800455, 3036377, -206321970, 16526893, -43918155, -36296722, -3612676, 31407066, 101279244, -15770702, 74423030, 33567756, -29577473, 47959916, 19469447, -48947442, -8320729, -30585933, 47240596, -113672562, 8414661, -69075488, -82305312, 27967151, 47846381, -8224212, 36761902, -53852636, 107572764, -123487480, 65172561, 14019457, -60298279, 79780921, 62773526, -24956668, 65112695, -38959038, 44975054, -29379455, -19803606, -67402959, -106354304, 7230091, -31978391, 4671697, 46014633, -45678981, 46350516, -49830753, -8599415, -44649966, -57990566, 13756849, -28044809, 575671, 31425904, -55258144, 57463627, -103905186, 1078543, 17364088, -8192656, 13698228, 34274809, -12777169, 9085673, -30818732, 13092949, -101915270, 17258503, 3228993, -39396927, -13612445, 20828156, -80123037, 4802857, -75267702, -33143103, 74477591, 43700162, 35997916, -10269752, 9682318, 71847856, -149138272, -22892220, -123923935, 6522617, 112589598, 86457118, 42875476, 14138447, 2812449, -8980325, -40326502, -28349647, -93839049, -58170509, 70984386, 17914973, 18302649, 4763699, 15804797, -31736564, -202790231, -14579205, -91631591, -43949850, -25023073, 85738942, -12180206, -20251961, 54781843, -28184639, -80559514, 22355784, -137213796, 37349422, -226636648, 106882252, 95195077, -73819563, -53294711, -66905253, -186899319, -76920860, -64416759, 45397811, -330282360, 98835200, 23977051, -35499375, 36575232, -123649456, -380876452, 142995566, -64504392, 21747315, -49711220, 271530479, -268634975, -147160247, -70254825, -198798969, -232820809, -110530227, 138545766, -188079849, -237155423, 234566242, -206977680, -340661049, 139580831, -313124955, -138628080, -61040491, 196600959, 84425732, -85253395, 119968228, -44990271, -191468179, -57425186, 15273022, 25598297, -53671606, -361198306, -37425973, 150955170, 208702490, -310135901, -200842574, -196275994, -168661922, -176888466, -207176596, 171338037, -12598743, -141002566, 179862469, 33865433, -6697746, -308629334, -180105060, -183278203, -781872809, -194816306, -88069990, -70793316, -16564060, 179940939, -102562435, 107277423, -115113683, -380870789, -60716584, -113267839, -259755135, -80079481, -24803637, 165691212, -240207925, 97257987, -297816217, 18292306, -44139560, -122167274, -41728444, 16642630, 28550027, 102310978, -100612789, 86353935, -152657464, 103187323, -33167135, -106594883, 2565259, 55624593, 78520246, 154964507, -194389999, 11899054, -240937233, 3001118, -66403955, -159108654, 28345276, -66773213, 59349015, 4685764, 82515880, 42119727, -49179230, 36358852, -35699971, 29058168, -27904695, -39397418, 22253331, 34573257, 42731315, -14015384, -61348725, -30511815, -24221869, -86134717, 125935853, 66202581, 119417287, -3636862, -13772686, 24360936, -17544277, -28808350, 56551453, -17000578, 66021502, -2888650, -24309777, 63885093, 43685943, 40003300, -76811999, -30910842, 1535846, -64771414, 66330291, -27502436, 41375581, -21795318, 19501884, 31378094, -32369304, -108366601, 27813505, -103066429, 149475768, 28935995, 62588297, 49132414, 11478879, 99743634, 1383211, -36103122, 19710792, -57345401, 57169098, -8856234, 47847863, -60032368, -34819953, 40510710, 45573559, -94275095, 55301890, -100019395, 135205880, 7807943, 33402797, 8320702, 67340411, 83639808, -7968063, 13426172, 60029786, -29469058, -16969092, 9303577, 7113212, 44155207, -16174300, 83232112, 5604956, 79124585, 101025105, -53962644, 46737436, 3480817, 37658323, -5039754, -3874599, 42654350, 131141663, -114726312, 33922963, -59837241, 23493337, 25650371, 94838880, 17389854, 6445919, 63311055, 43406513, -42745288, 108156763, -17822323, -58395687, 14455911, 113731898, 45992225, 23913836, 32162197, 72291560, -110228226, 54032300, -75657636, -16318541, 20073641, 169685259, 36826417, 68428457, -3022314, 82549378, -111212105, 62455934, -35840038, -99948242, 68181314, 75823002, 10650090, 52503917, 4295509, 239783198, -204601392, 47079284, 379725, -118239738, -67460820, 199393928, -27654829, 11294686, -134344876, 5912819, -397646010, 42595997, 87540045, -108094253, 22842485, 186117172, 7402806, 27559709, -58852505, -44559792, -189728096, 57065953, 145596728, -173095450, 50044227, 113422304, -142235875, -26095580, 76934569, -245370239, -438746959, -5868476, -20119650, -130231068, -26819672, 155304804, -344723374, -252858132, 245162025, -113445699, -253447026, -185804635, 188361436, 37031151, -273414582, 265734375, -180280730, -35012666, -8861151, -161719948, -257865101, -58472440, -160290107, 146615997, 236247063, 47890581, -108775057, -104684681, -77484488, 129821390, -55214331, -322016746, -179538101, -602715254, 206219390, 326017201, -176449358, -247953460, -276752710, -114907958, -143994808, -205495954, 178663656, -423613042, -170894295, 116918705, -27291423, -84498450, -379942924, -132541329, -19457992, -527081013, -457490832, -223576903, 1358891, -167182222, 269268751, -125387818, 67962453, -157577813, -134306341, -34571983, -53379819, -237340793, -192144185, -62353831, 210270315, -364163995, 135183379, -125034794, -3064881, -180167794, -29942645, 32700557, 82769677, -167392105, -15211103, -51480923, -51263258, -295141935, 264550030, -145812303, -20121302, 70012949, -146788314, -45256048, 57078980, 5443788, 42984173, -504715025, 89410238, -108966351, 43487635, 27611118, 109707132, -16876843, 62157992, 80602482, -13965952, -94618708, 150839299, -40077187, 31566676, -26781777, -46685949, -33006828, 39924655, -46378732, -57012592, -257419229, 26923303, -8317681, 60265478, 28318208, -56485318, -883454, 2921459, 11024536, 124917455, -7008208, -104703873, 18489959, -77172458, 78603558, -6922258, 12497279, 87376721, 16664242, 25972776, -51853262, 70264891, -1856818, 12009350, 35658654, -12178108, -27541619, 23548201, 47957532, 52554153, -104147524, -28980969, 41569028, -36249928, -31118440, 74700974, 35420951, 72225347, 72747432, 1627416, 175439745, 52675974, 74209198, -5315567, 28284552, 947177, -12458717, 30674970, 8812204, 77656269, 66117994, 28499231, 81391111, -93648814, -41413300, -82444914, -43731414, 65648630, -21250688, 72011292, -8912858, -17774947, 240821, -134196818, 63495047, -117605381, 7856632, -10747839, -24132535, 72925918, 75391725, -51677380, 16027771, -135037377, 20914957, -139593557, -30344037, -3019630, -2416359, 104855143, -68252861, 18341023, 58668416, -104226619, 222124, 37508003, -30641701, 68505138, -15243720, 116206482, 49670260, 32900408, 71333922, -6154377, -73372148, -29190185, 44398058, 18505417, -21192655, 72093919, 34599956, -73365614, 153823316, 4452680, -179470703, 70478857, 96625261, -1095328, -21577341, 30831911, -26410576, -80748372, 103572555, -58098093, -169000745, 309945911, 74041791, 19278506, -22584055, 173260674, -57080980, -174209327, 958677, 28301390, -51046479, 85465647, 98566182, -34954458, 33463635, 537070, -127317056, 12835301, -40149264, -29843042, -12550348, 40641736, 99948108, 91591835, -25849627, 66494487, -223711073, -136892512, -89267924, 59848849, -144286215, 483430862, 35812739, -320281953, -2640318, -36737096, -118593812, -189268246, 30655630, 260183364, 27916415, -183554247, 171871722, -149612054, 278990597, 119396374, -372038543, -232487902, -49016938, -169606611, 50580002, 269296974, 125365853, 42938549, 274571776, 200083449, -274845779, -581767261, -333720952, -213231757, -80325231, 440792352, 132189631, -258119017, 119155452, 58967587, -196164578, -454457730, -249564439, -97573407, -26895879, 396795154, 224567682, -293803543, -162904605, -161605760, -140043199, 101842254, -262798756, -167876124, -236843705, 4847290, -273060322, 264507592, -185577556, -153983653, -19547248, -159837723, -384262145, -49773406, -415823817, -331766307, -163761571, 40504813, -156502038, 246854737, -232670099, 16241837, -238884181, 148770735, -249825954, -207110643, -10818436, -43460637, 80201671, 132059306, -191744462, 183510393, -163953975, -82555272, -14070799, -28607786, -60711659, 13826814, -167250499, -42131808, -66633783, -60029067, -264609635, 183311194, -211500391, -57038791, 19284168, 96272931, -123100094, 50039653, -182812631, 19995024, -72192349, 116979264, -51923785, -104140744, -9431093, 82999349, -178464249, -32733925, -205103695, 50074860, 6089536, 2728488, -44525933, -57517670, -92901595, 99857680, -204941824, -29195584, -127602160, 65445788, -36580998, 105972320, 48843402, -124658324, -16989734, 116975911, -137233377, -31993147, -337177098, 150752798, -88129893, 13587280, -45451563, -168131158, -82482725, 79678230, -91602713, 13012407, -359471351, 32129321, -34589663, 72992519, 28638294, -127432555, -19945474, 81985354, -117655024, 25164319, -95684059, 66887788, 42809974, 54540161, -20860877, -62511645, -40524632, 45521583, -132457808, 64181216, -84044285, 120573640, -46146080, 44560719, 8865344, -86694092, -54521210, 109710701, -199121431, 24742976, -136430740, 39147899, -67681797, 26003011, -44007696, -74067667, -56570135, 25956810, -128373876, -8737193, -128449321, 113810517, -49999256, 63187152, -115700699, 7995754, -115577132, 5710415, -122684635, -70325345, -131487921, 59517127, 58241561, 51951766, -124277666, -52426293, -78636408, 71890615, -105413564, 112753652, -32343376, 44420689, 29637285, 83806254, 61241217, -16873185, -127335548, 40738996, -69858275, 22989117, -37433781, 39815653, 21623567, -22511328, -213603392, 71382210, -29209282, 26789971, -134365514, 52642860, -191175535, 162384048, 17168351, 18860739, 59532817, 232089549, -13248601, 36899008, -61785117, 162160531, -217909291, 3576351, 107222095, 58668926, -288033277, -131093845, -118621148, 152405709, -127667770, -72857521, -271909803, -25738714, 60921215, 89986056, -374750406, -58670018, 101644836, -11874871, -94026685, -13666200, -76235078, -25511267, -66140465, 44410098, -46110172, 16362570, 162475154, -65824889, -154261559, 184411034, -117084749, 79306632, -257629156, -57379659, -160939053, -110269681, 82274720, 43950152, 136323541, 275047868, -113421939, -410451025, -56985021, -36281541, 15597516, 121057108, 222419903, -403926700, -113944948, 249643460, -214181334, -69290571, -62371299, -3608884, 30466866, -188168973, -31651326, -228197053, -27011385, 280970216, -266325712, -151508242, 221201777, -96980236, -382821947, 33715691, -116171658, 22500351, 242193863, -339313775, -615750432, -108019263, 36496583, 338169008, -71684830, 162796527, -218411759, -96378401, -13671247, 296193063, -498715997, 42755950, 45537461, -118534967, -59036400, 126793936, -192498684, -93912944, -130349711, -106152214, -51040195, -16501719, -204490110, -110541016, -118800782, -198134601, -274059534, 316322714, -318025678, 119032584, -81672467, 80495797, -97972542, -385641873, -91386206, -334249735, -115661055, -17086606, 82768872, -58686182, -218460187, -135960937, -239829943, 251644880, -34140199, -56416683, -259264439, 19244855, 64892553, -79343565, 15252756, -46823267, -129313573, 219076648, -133116394, -52273709, -160389379, 427540302, -46772681, -71673356, -44962849, -73874608, -100879647, 221184194, -99210396, -189459488, -287874490, 79161651, -314924538, -60898259, -172637299, 122731462, -26298841, 248607874, -30273309, -183295742, -293783426, 10035497, -184990019, -138379067, -457010627, 157100871, 41506276, 195753440, -99676140, -100991242, -222687960, 2850804, -216687649, -14489906, -321288079, 98378360, -27300980, 162312552, -11008040, -254726231, -183034584, 35462726, -273561358, 34957036, -528749764, 165810734, -42590469, 220937163, -30029407, -127924085, 76259486, 16452471, -235339478, 73852450, -511903226, 56325998, 48874613, 91629192, 103925996, -119922519, -73274188, -50501421, -309054881, 23591949, -594610214, 15579336, -43131288, 139879376, -56736227, -164623827, -93734086, 67844167, -233163893, -35058044, -757144749, 56006860, 2689548, 84217720, 139908150, -153157026, 141710475, 11123738, -237460792, 6891664, -645256102, 67305975, 12540674, 203259587, -20486876, -79684578, -85313514, 31959020, -206743807, 21715347, -356195867, 170077726, 22855043, 81744321, -72617911, -84126592, 2500593, 52247912, -269464582, 89661993, -481080920, 132253379, 41068580, 39258976, 89832224, 140482306, -131511182, 106807381, -277832806, 79229362, -544003010, 241306186, -49030319, 174504533, -126031533, -49130943, -158840775, -6845566, -145799026, -91184095, -279975146, 77316321, 89901522, 143008977, 25158821, 165840030, 4254953, 47128905, -212810636, -23907315, -372304350, 194768786, -239963084, 4404125, 36700994, 1338839, 22934731, -196104214, -82095891, 37285250, -160148174, -52839573, -139982447, 142222330, -251299590, 164120570, -74934043, -187832355, -17815035, 74555926, -583781660, 160512820, 158753484, 40344942, -206703484, -2620820, -67542627, -206596568, -3522991, 179369971, -324827939, 138745651, 13080324, -1647730, -289460748, -55490505, 291180253, -66618651, 108755276, 8607268, -617866635, -64656064, 16222378, -32784689, -176669985, -302667856, 168689355, -194288194, -103308797, 110613748, -224621519, -117705137, -137802750, 79180077, -246317998, 557909, -160580471, 105594039, 151683509, -292040795, -424565732, -481652796, 131314129, 340092063, -155725762, -179995269, 519775748, -330758780, -146032050, -394068450, -85246369, -269483954, -316703230, 84025607, -143650740, 212513924, 293187886, -250479698, 194912702, -274736524, -290915698, -243909299, -294437170, -287923723, -123305611, 128751770, -173598155, 27876131, -34182440, -46799097, -96647225, -227964610, -159577504, 281382322, -14250544, -77569224, -236100316, -121932209, -154469609, 212917700, 6725483, 212238044, -323648125, -260395765, -164982945, -258893788, -92639908, 4960388, 108710647, -108222768, -206199139, 147977605, -263508081, 137860417, -90990081, -243382171, -371469945, 44058375, -182302356, -14251327, -68802319, 70890240, -167245492, 80436930, -447403818, -213275224, -87601572, 101136379, -221356064, 116751254, 33284009, 27538177, -18299742, -112874627, -238194332, -284721583, -410965949, 154766649, -449326903, -35954662, -73189370, 139940456, -109903738, 201179102, -544759154, -133366600, -344738483, 209798262, -318571478, -181008190, -75253680, 94903953, 49357202, 123022035, -504057050, -492802560, -376384199, 133718550, -58261171, 243388698, -234524772, 118412808, -23340484, 126337573, -448832572, -485865563, -422492743, 357160687, -94269723, 38796023, -154122695, 120441698, -59592191, 70807338, -166212082, -261288404, -542510092, 199095413, -249116123, 235754296, -142131865, 145957485, -163562000, -8556635, -531961977, -439439952, -393184751, 217055455, -117753066, 77319510, -75496957, 12989519, 68232134, 41011974, -290606409, -565666616, -251439601, 153662086, 8089234, -55683304, -492654711, 190683633, 71167193, 113754719, -650538027, -341260284, -47716238, 248618692, -205598637, 47046758, -41501775, 187476844, -25079414, 80555119, -454313755, -358582020, 16618431, 158171624, -101285495, 212550789, -484047502, 51913857, -101967603, 43608401, -485492319, -141944513, 53435858, 99865749, 11093101, 31242242, -533598483, 58815606, -28956851, 49882282, -660169661, -313183516, 206363335, 6714615, -96928217, 126069754, -493038952, 94945565, 69826417, 21221220, -629996300, -961588264, 3913764, 150800556, -86522035, -40297121, -546438396, 105002292, -47247857, 83689012, -424600571, -949497342, 43677088, 65733597, -204742491, 137301236, -388265222, 94185665, 93561754, 137774929, -528830230, -716775477, -63056640, -195098102, 99556260, 304389238, -432738632, -51711906, -101688884, 223695949, -470125556, -623425364, -270244867, 106077969, -208152771, 315683872, -239336833, 97336642, -29031215, 272249401, -355888277, -884034336, -139587879, -43657452, -61462857, 1016197, -557182014, 85774787, 164150879, 114464000, -261672258, -325568587, -102340408, -358333319, -254458457, 234615579, -11780323, 48542649, -129757598, 246824116, -233997211, -164158627, -330025464, -138805315, -95837660, 356803685, -360864431, 14558807, -384611040, 198710307, -289642662, -200416997, -321018934, -141107798, 26544593, 220253259, -252073705, -57087690, -98942392, 226185709, -261726558, -93594573, -264553756, -250662595, -362204224, 289879888, -43560542, 24815811, -377444983, -91161430, 71963869, 50407812, -265821874, -39541401, -136941552, -99955209, -80887526, -135813907, -232588276, 264304608], "dense_bias": [0.0, 0.0, 0.0, 0.0, 0.0, 0.0, 0.0, 0.0, 0.0, 0.0]}