{"in": [0, 0, 0, 0, 0, 0, 0, 0, 0, 0, 0, 0, 0, 0, 0, 0, 0, 0, 0, 0, 0, 0, 0, 0, 0, 0, 0, 0, 0, 0, 0, 0, 0, 0, 0, 0, 0, 0, 0, 0, 0, 0, 0, 0, 0, 0, 0, 0, 0, 0, 0, 0, 0, 0, 0, 0, 0, 0, 0, 0, 0, 0, 0, 0, 0, 0, 0, 0, 0, 0, 0, 0, 0, 0, 0, 0, 0, 0, 0, 0, 0, 0, 0, 0, 0, 0, 0, 0, 0, 0, 0, 0, 0, 0, 0, 0, 0, 0, 0, 0, 0, 0, 0, 0, 0, 0, 0, 0, 0, 0, 0, 0, 0, 0, 0, 0, 0, 0, 0, 0, 0, 0, 0, 0, 0, 0, 0, 0, 0, 0, 0, 0, 0, 0, 0, 0, 0, 0, 0, 0, 0, 0, 0, 0, 0, 0, 0, 0, 0, 0, 0, 0, 0, 0, 0, 0, 0, 0, 0, 0, 0, 0, 0, 0, 0, 0, 0, 0, 0, 0, 0, 0, 0, 0, 0, 0, 0, 0, 0, 0, 0, 0, 0, 0, 0, 0, 0, 0, 0, 0, 0, 0, 0, 0, 0, 0, 0, 0, 0, 0, 0, 0, 84, 185, 159, 151, 60, 36, 0, 0, 0, 0, 0, 0, 0, 0, 0, 0, 0, 0, 0, 0, 0, 0, 0, 0, 0, 0, 0, 0, 222, 254, 254, 254, 254, 241, 198, 198, 198, 198, 198, 198, 198, 198, 170, 52, 0, 0, 0, 0, 0, 0, 0, 0, 0, 0, 0, 0, 67, 114, 72, 114, 163, 227, 254, 225, 254, 254, 254, 250, 229, 254, 254, 140, 0, 0, 0, 0, 0, 0, 0, 0, 0, 0, 0, 0, 0, 0, 0, 0, 0, 17, 66, 14, 67, 67, 67, 59, 21, 236, 254, 106, 0, 0, 0, 0, 0, 0, 0, 0, 0, 0, 0, 0, 0, 0, 0, 0, 0, 0, 0, 0, 0, 0, 0, 0, 83, 253, 209, 18, 0, 0, 0, 0, 0, 0, 0, 0, 0, 0, 0, 0, 0, 0, 0, 0, 0, 0, 0, 0, 0, 0, 0, 22, 233, 255, 83, 0, 0, 0, 0, 0, 0, 0, 0, 0, 0, 0, 0, 0, 0, 0, 0, 0, 0, 0, 0, 0, 0, 0, 0, 129, 254, 238, 44, 0, 0, 0, 0, 0, 0, 0, 0, 0, 0, 0, 0, 0, 0, 0, 0, 0, 0, 0, 0, 0, 0, 0, 59, 249, 254, 62, 0, 0, 0, 0, 0, 0, 0, 0, 0, 0, 0, 0, 0, 0, 0, 0, 0, 0, 0, 0, 0, 0, 0, 0, 133, 254, 187, 5, 0, 0, 0, 0, 0, 0, 0, 0, 0, 0, 0, 0, 0, 0, 0, 0, 0, 0, 0, 0, 0, 0, 0, 9, 205, 248, 58, 0, 0, 0, 0, 0, 0, 0, 0, 0, 0, 0, 0, 0, 0, 0, 0, 0, 0, 0, 0, 0, 0, 0, 0, 126, 254, 182, 0, 0, 0, 0, 0, 0, 0, 0, 0, 0, 0, 0, 0, 0, 0, 0, 0, 0, 0, 0, 0, 0, 0, 0, 75, 251, 240, 57, 0, 0, 0, 0, 0, 0, 0, 0, 0, 0, 0, 0, 0, 0, 0, 0, 0, 0, 0, 0, 0, 0, 0, 19, 221, 254, 166, 0, 0, 0, 0, 0, 0, 0, 0, 0, 0, 0, 0, 0, 0, 0, 0, 0, 0, 0, 0, 0, 0, 0, 3, 203, 254, 219, 35, 0, 0, 0, 0, 0, 0, 0, 0, 0, 0, 0, 0, 0, 0, 0, 0, 0, 0, 0, 0, 0, 0, 0, 38, 254, 254, 77, 0, 0, 0, 0, 0, 0, 0, 0, 0, 0, 0, 0, 0, 0, 0, 0, 0, 0, 0, 0, 0, 0, 0, 31, 224, 254, 115, 1, 0, 0, 0, 0, 0, 0, 0, 0, 0, 0, 0, 0, 0, 0, 0, 0, 0, 0, 0, 0, 0, 0, 0, 133, 254, 254, 52, 0, 0, 0, 0, 0, 0, 0, 0, 0, 0, 0, 0, 0, 0, 0, 0, 0, 0, 0, 0, 0, 0, 0, 61, 242, 254, 254, 52, 0, 0, 0, 0, 0, 0, 0, 0, 0, 0, 0, 0, 0, 0, 0, 0, 0, 0, 0, 0, 0, 0, 0, 121, 254, 254, 219, 40, 0, 0, 0, 0, 0, 0, 0, 0, 0, 0, 0, 0, 0, 0, 0, 0, 0, 0, 0, 0, 0, 0, 0, 121, 254, 207, 18, 0, 0, 0, 0, 0, 0, 0, 0, 0, 0, 0, 0, 0, 0, 0, 0, 0, 0, 0, 0, 0, 0, 0, 0, 0, 0, 0, 0, 0, 0, 0, 0, 0, 0, 0, 0, 0, 0, 0, 0, 0, 0], "conv2d_1_weights": [280, -156, -568, -454, -203, -313, -481, 211, -259, -624, -586, -119, 114, -512, -356, 220, -136, -440, -541, 143, -254, -833, 168, 136, 341, -143, 291, 303, -152, -502, 359, 310, -310, 12, 93, 69], "conv2d_1_bias": [70218, 78649, 71172, -31785], "conv2d_2_weights": [109, 56, 121, -258, -370, 288, -111, -59, -73, -31, 320, -259, 5, -37, 231, -158, 107, -359, 89, -42, -292, -297, -265, -152, 238, -56, -309, 1, 61, -186, 146, -11, -201, -213, 114, -88, -16, -127, -13, -84, 189, -212, -151, -220, -165, 187, 70, -191, -210, -91, 36, -33, -67, 4, 43, -28, 49, 131, 87, -268, 81, -123, 130, 86, -249, -465, 220, 239, 521, -177, 289, 217, 95, -203, 99, -253, 149, 259, 61, 301, -128, -141, 148, -83, 345, 43, -79, -4, 259, 105, 159, 173, 153, -233, 18, -469, -223, 284, -54, 137, -37, 150, -364, -146, 40, 93, -54, 102, -7, -126, 120, 306, -30, 77, 23, 106, 97, -279, -72, 9, 56, -11, -62, -221, -19, -38, 39, -66, -275, 133, -150, -202, -262, 342, 72, 108, -159, -21, -121, -310, -145, 76, -27, 375, 13, -180, -3, -138, -213, 113, -348, 304, 120, -233, -47, 109, -191, -9, 267, -244, -41, 131, -19, -101, -139, -254, 98, -435, -169, -38, -95, -97, 47, -70, 285, -69, 109, 75, -90, 71, -44, -12, 417, 399, 264, -410, 65, 27, 104, -139, -404, 205, -176, -99, 102, -126, -23, 229, -207, -88, -177, 301, -41, 283, -70, -111, 139, 305, -80, 230, -145, 330, -134, -222, -279, 51, 52, 72, 263, -354, -199, 23, 73, 33, -171, 160, -116, 206, 160, 93, 439, -261, 33, 277, -63, -217, -159, 364, 178, -89, 59, 403, -29, 64, 51, 242, 31, 374, 181, 77, 58, 25, 171, -340, -199, 285, -80, 292, 179, -39, -241, -309, -160, -120, 45, 311, -199, -277, -119, 74, -31, -82, 180, 442, -254, -136, -72, 162, 368, -296, 67, 178, -112, -137, -247, 172, -358, 254], "conv2d_2_bias": [-42712599039078, 49966190010309, -33757854253054, -21150186657906, -114764221012592, -8388033136725, -16700625419617, -74265278875828], "dense_weights": [17, -53, 6, 28, 183, -219, 193, 268, -120, -112, 91, -72, 107, 73, 101, -59, -163, -125, -115, 125, 12, 58, -38, 101, 102, -122, 265, -100, -11, -72, 5, 179, -185, -33, 35, -204, 50, 158, 29, -18, -263, -98, 64, -42, 102, 8, -70, -63, 65, 104, -27, 50, 45, -22, 23, 177, 138, 7, -40, 45, 171, -158, 27, -40, -125, 39, 192, 0, 95, 150, 32, -134, 62, -79, 68, 12, -125, -174, -14, 147, -54, -132, -2, -37, -137, 130, -25, 81, 92, 16, 140, -36, 118, -15, -342, -61, -197, -34, -67, -9, 38, -182, 1, -8, -253, 33, 236, 22, 162, -1, -262, -19, 126, 19, -149, -68, 7, -32, -41, -110, -96, -66, 74, 106, -269, -62, 209, -121, 183, -55, 88, -71, -162, -139, -59, -25, 165, -150, 183, -57, 220, 210, 42, -335, -171, 90, 342, -215, -43, 64, 150, -135, 39, 16, -144, -8, -95, -11, 176, 64, 49, -55, 147, -54, -96, 32, 9, 95, -31, 96, 47, 36, 78, 153, -446, 151, -133, 124, -79, -40, -27, 31, -126, 84, -112, 52, -138, -74, 171, 110, -136, -86, 174, 215, 173, 11, 87, -151, 147, -86, 117, -14, 19, 73, -42, -198, 192, -100, 122, 301, -11, 281, -139, -318, 320, 21, 480, -60, -40, -81, -71, 444, 73, -183, 30, -44, 346, -158, -68, -472, -51, -19, 7, -79, -185, 61, 63, -32, 102, 185, 86, -169, 0, 88, -114, 75, -132, 51, 15, -110, -60, -78, 82, 132, -582, 160, 7, 143, -41, 121, -7, -39, 41, -78, 60, 85, -46, -264, 76, -75, 29, -157, 189, 122, -137, -64, 56, -188, 73, -102, -9, -65, -69, 109, -193, -75, 44, -92, 145, 26, 40, 516, 48, 99, 46, -28, 183, -45, -195, -335, -106, 142, -167, -30, 166, 172, 168, -108, -2, -294, -137, 8, -49, -9, -76, 55, -97, 23, -17, 93, 101, -71, 0, 87, -105, -18, 41, -163, -99, -60, 61, -27, 172, 64, -463, 57, 251, 18, -185, 126, 11, 103, -114, -37, 246, 39, -44, -345, 134, -128, -111, 277, -25, 112, 186, -244, 44, -34, 89, -60, -52, -91, -128, 166, -147, -90, 235, 20, -51, -124, -3, 11, -13, 22, 13, -18, 38, -273, -55, -215, -160, 83, -81, -53, 45, 45, 314, -321, -104, -158, 0, -49, -93, -191, 240, 140, 46, -67, 162, -76, -86, -68, -186, 1, -53, 67, -85, 198, 127, 105, 88, -66, 134, 168, -95, -91, -226, 96, -6, -55, -17, 23, 8, -1, -32, -191, 8, -3, -67, 1, 89, -58, -196, -57, 152, 48, 66, 11, 74, 46, -5, 194, 44, -122, -9, 55, -156, 158, -227, 104, 49, -20, 8, -183, 135, 115, -71, -71, -99, 132, 139, 97, 31, -109, 15, 244, -14, -63, 50, 199, 97, -140, 39, -56, -4, -146, 151, -335, 115, 205, -16, 17, -156, 36, 79, 91, 26, 89, 64, 80, -167, 183, 225, 172, -448, -71, -327, 273, -32, -106, 41, -207, -61, -59, 4, 29, -155, -86, 66, -42, 1, 118, 9, -34, 98, -44, -81, 52, 157, 83, 147, 137, -52, 99, -16, -57, -81, 115, 55, -120, 95, -81, 156, -212, 103, 256, 411, -166, -134, -78, -164, 165, 113, -106, 230, -154, 172, -39, -116, -44, 5, -247, -48, 183, -52, -213, -32, -180, -24, 194, 32, 32, -112, 96, -224, -11, -280, 181, -178, -9, -38, -35, 108, 52, -328, -13, -267, 230, -98, -75, -33, -62, -61, -20, 57, 5, -75, 145, 34, 94, -20, -25, 29, 28, 137, -7, -237, -20, 172, 104, 19, -18, 181, 168, -49, -125, -175, -27, -129, -28, 29, 106, -105, -257, 48, 200, 239, -90, -281, -429, 23, 157, -10, 27, 282, -73, 60, 8, -338, 12, 9, -61, -87, -22, -173, -71, 123, -126, -40, 10, 148, -83, -192, 113, -59, -45, -159, -97, 146, 102, 15, -105, -79, -21, -365, 260, 222, 107, -79, -33, 175, -128, -176, -133, 154, -27, -190, -62, 79, 90, -51, 4, 167, 71, -72, -117, -155, 141, -52, -23, 145, -112, 42, 133, 70, -7, -85, 29, 233, -38, -225, 317, -33, 168, -48, -202, -221, 3, -79, -313, -179, 70, -76, 64, 147, -865, -81, 118, -209, -10, -172, -44, -143, -67, 47, 151, 33, 157, 69, -106, -1, 21, -1, 75, 11, 1, -245, -62, -58, 31, -186, -90, -309, -53, -355, 315, 195, -91, 54, 2, -18, 29, -108, 20, 11, -217, -310, 157, 88, -133, 418, -430, 162, 95, -17, -561, -214, -59, 203, -23, 71, 23, -43, -12, -192, -95, -44, 7, 112, 78, -69, -41, 20, 134, 31, -101, -339, 92, -129, -201, -90, 48, 109, 147, 49, -396, 32, 200, -34, -66, -197, 135, -184, -55, 253, 221, -57, 235, -24, -396, -7, -110, -181, -138, 140, -261, 70, -13, 75, -74, -166, -58, 234, 214, -47, -67, -309, 94, 104, -168, -14, -193, -78, -185, 116, -68, 172, 9, -160, 100, 118, -84, -117, -238, -52, -22, 117, 119, 131, -85, -49, -69, -25, -250, 256, 121, 82, 65, 111, 186, 299, 56, -38, -167, 54, -7, 129, 10, -76, -44, 107, -68, -166, -182, 114, 91, 196, 112, -63, 75, 49, -75, 275, 21, -42, -231, -146, -128, -30, -160, -30, -23, 22, -120, 229, -103, -29, -1, -15, 3, -275, 91, 182, -62, -54, 11, -375, 183, -255, -14, 60, -232, -109, -322, 102, -57, 89, 107, 77, 16, -117, -228, -194, -19, 82, 83, -9, -107, 32, 20, 36, -283, -89, -486, 66, -26, -135, -5, 83, 62, -19, 112, -48, 42, 25, -221, 178, -48, 18, 165, -44, 274, -282, 47, 86, -16, 109, 142, -230, -79, 93, 22, 43, 30, -26, -392, 20, 93, -245, -452, -157, 70, 27, 84, -75, -60, 40, -261, -31, -23, -124, -152, 82, 145, 61, 75, -127, 71, -60, -1, -6, 102, -114, 162, -148, 163, 221, -61, 148, 67, -116, -27, -125, 227, 88, -33, -109, -216, 218, 253, 30, -36, -27, -176, -3, -43, 10, -115, 158, -100, 251, -59, -193, -284, -14, -38, -78, 355, 114, -121, 65, 11, 9, -82, -125, -118, -139, 230, -36, -122, -108, 131, -54, 291, -261, -49, 132, -12, -74, 0, -239, 114, -128, 2, 28, -152, -120, -21, -159, -25, -57, -203, 2, 178, -130, 251, 120, 63, 28, 44, -217, 20, -10, 55, 223, -84, 43, 130, 187, 162, 188, -106, -96, -135, 55, 45, -130, 7, -93, -105, -27, -65, -22, 65, -9, -61, 15, 98, 9, 127, 198, 320, 177, -262, -157, 187, -204, 7, -105, 40, 109, 108, 106, -240, 44, -266, -196, -59, -16, 100, -261, -168, -62, 179, 60, -257, -173, -269, 218, 76, 5, -126, -191, -36, -43, -287, -25, -16, 84, 12, -134, 50, -70, 128, -203, 115, 37, -78, 44, -136, 92, -146, 92, -327, 69, -234, 178, 23, -99, 143, 237, 122, -115, -352, -54, -217, 12, 67, -78, 32, -103, 110, 15, -48, -18, -88, 127, 22, -121, 116, -44, 228, -86, -64, 18, -14, -203, -127, -59, 123, 69, 24, 3, -19, -46, -341, -78, -15, -30, 126, -217, 9, -55, 63, -220, -146, -182, -242, 157, -72, 211, -110, 101, 21, -87, 177, 3, -233, -37, -102, -182, -32, 52, 140, 38, 72, -152, -171, 141, -166, -14, -396, 318, 18, 7, 149, 27, -155, 83, -47, 180, -24, -61, -131, 54, -136, 27, 13, -85, 60, -41, -95, 131, -118, 147, 71, -4, -107, 93, -79, 8, -29, 41, 0, -30, -37, 108, 102, 147, 107, 194, -182, -133, -209, 0, 53, 322, -13, 64, 191, -112, 48, 117, -214, 81, 66, -229, 87, 115, -303, 73, -84, 217, -137, -31, 133, 145, -237, 125, -116, -284, 371, -104, 73, 161, 192, -469, 206, -134, 152, 183, -183, 282, -242, 109, -260, -50, 141, 3, -62, -3, -354, -12, -134, 61, 95, -75, -184, 144, 47, 38, -133, -217, -35, -2, -6, -17, -119, 207, 2, 60, 27, 146, -150, -120, -158, -3, -105, 151, -265, -27, 141, 167, -205, -110, -168, 99, -94, 101, -482, -76, -69, 221, -216, -184, -60, -130, 41, 295, -340, -159, 131, 105, -1, 62, -179, 109, 158, -33, 44, -188, -368, -13, 195, 268, 194, -8, -28, 97, 158, -95, -14, 95, 120, -21, 34, 237, -50, 98, -171, -21, -130, 26, 70, 153, -124, 30, -223, 323, -77, 152, -66, 215, -13, 24, 100, 181, -152, 223, -77, 74, -31, -23, -332, -61, -107, 60, 223, 42, -233, 32, 154, 158, -344, -12, 59, 8, 51, -13, -207, -44, -36, 21, -66, -33, -139, -80, 28, 17, 43, -30, 6, 101, -37, 123, 67, -52, 107, -137, -54, -179, 0, -38, -54, 113, -84, 25, 19, -63, -41, 16, -145, 109, -134, 286, -172, 35, -1, -13, 20, -22, -8, 132, 10, -51, -8, 254, -70, 193, 70, -58, -125, -68, 9, 97, 71, -79, 129, 9, 106, -348, 221, -4, -88, 65, -14, -163, -89, -278, 312, -8, -111, -122, -77, -5, 7, -238, 32, -236, 281, 5, -315, 95, -91, 25, -175, -28, 29, -50, -20, -62, -101, 10, 83, -88, -86, -8, -37, -241, -118, 153, 45, 208, -91, 213, -81, -41, 68, 132, -137, -57, -8, -15, 37, 76, -110, -43, 195, -188, 5, 115, -188, -133, 35, -57, 186, -136, -154, 148, 13, 12, -139, -42, 81, 153, 95, 127, 186, -92, -89, 140, -197, -121, 119, -56, -14, 13, -8, 47, 77, 60, -371, -173, 26, 88, 51, 132, 40, -16, 92, 119, 237, 120, -237, 33, -183, -144, 126, -129, 13, -2, 191, 217, -25, 5, -45, 81, 33, 49, 133, -213, -96, -26, 51, 78, 85, -108, 8, -50, -136, -26, 103, -43, 33, -39, -86, -86, -343, 122, -94, 25, -41, 59, -63, -32, 45, -52, -180, 218, -63, 89, -148, -39, 58, -156, -53, 175, 8, -129, -41, 228, -79, 205, -129, -84, -122, -44, 86, 69, -26, 264, -271, 342, -336, -31, -363, 227, 209, -27, 58, -60, 165, -51, -58, 243, -110, 26, 307, -146, 22, -38, -159, 18, 161, 28, 98, -37, -106, 151, -104, -56, 112, -45, 143, 91, 130, -199, -44, -275, 230, 198, 167, 24, -107, 3, 163, 4, -106, -35, 76, 67, -152, 12, -147, -20, -70, 203, -209, 126, 43, -88, 5, -51, 161, 87, 89, 141, -93, -98, 26, -254, 39, 118, -162, 74, -132, -83, 157, -103, -121, -289, 23, 110, -304, 281, -171, -217, 260, -200, 118, -247, -43, -136, 88, 36, 37, -332, 104, -242, 231, 176, 76, -1, 145, -207, 206, 79, -216, 34, -269, 95, 56, 144, 74, -201, 32, 72, -230, -26, -36, -105, -49, 275, -39, -168, 9, 40, -316, 46, -154, -55, -98, -12, -90, 87, -142, 281, 62, 161, 9, 207, -144, 184, 142, -257, 107, 96, -311, 22, -116, -142, 248, -61, -116, 76, -107, -306, 110, -91, 22, -221, 87, -174, -25, 129, 66, -274, 225, -78, 200, 53, -254, 14, 288, -93, 180, -93, -130, -93, 16, 30, 249, 15, -121, -167, -6, -68, -156, -116, -176, 168, -40, -17, -119, -37, -38, 163, -33, -144, -112, 89, 165, 271, -132, -27, 124, 38, -255, 82, -98, -323, 157, -25, 34, 186, -38, -115, 191, -69, -47, -108, 184, 171, -98, 93, 48, 140, 49, 0, -122, -108, -32, -357, 34, 141, 138, 3, 240, -5, 194, -72, 54, -404, 193, -57, 148, 20, 50, 2, 87, -24, -23, -125, 212, -208, 84, -107, -163, -29, -32, -174, 97, 17, 84, -10, 101, 15, -60, 73, -155, 199, 124, 180, -46, -17, -13, 60, 149, -31, -350, -169, 56, 48, 2, -118, -37, -74, -448, 166, -108, -399, 274, -57, -68, 200, 77, -295, -204, 31, -32, -218, 107, -21, 13, -29, -5, -35, -122, -149, 42, 55, -145, -171, -4, 69, 188, 153, 62, -1, -42, -88, -34, -279, 81, -135, -61, -39, 80, 88, -136, 190, -366, -297, 226, 141, 144, 165, 184, 3, -137], "dense_bias": [0.0, 0.0, 0.0, 0.0, 0.0, 0.0, 0.0, 0.0, 0.0, 0.0]}